{
    "version": "v7_deep",
    "layers": [
        {
            "w": [
                [
                    0.30190314997874496,
                    -1.272557365088298,
                    0.23122096559748773,
                    0.8652671865759475,
                    0.17736660670181612,
                    0.8403821258411948,
                    -0.3461934990016675,
                    -0.8160349057163541,
                    -0.6114126360858387,
                    -0.5765116372424891,
                    -0.012576319962060711,
                    0.20274774124286343,
                    0.7394104359261189,
                    0.47255460993695647,
                    -0.6774839993354325,
                    0.27021827461647047,
                    -0.6102021698152521,
                    -1.0644852743646938,
                    1.448671810433383,
                    0.13817148596042506,
                    0.20366433392222952,
                    0.9626739188847611,
                    -0.3984518115476492,
                    -0.7549032252104915
                ],
                [
                    -0.0213465062316914,
                    0.45438575059716285,
                    0.07925552862892393,
                    -0.313407462366043,
                    -0.038882721733564655,
                    -0.10086768589414706,
                    -0.43797752530627615,
                    -0.12399640036781465,
                    -0.835165662907786,
                    0.3050236141048449,
                    0.4610935973246387,
                    0.5177026774155616,
                    1.0323917373673064,
                    -0.5518703723633236,
                    0.7075278593782719,
                    0.4066371980086344,
                    -0.106584063252557,
                    -0.5346473195954352,
                    -0.5618198535547875,
                    -0.503144716177426,
                    -0.5914651784561343,
                    -0.545601935489414,
                    -0.42289523740029533,
                    -0.28288366139231036
                ],
                [
                    -0.1435535342223455,
                    -0.8968368379023816,
                    -0.16245855850520924,
                    -0.6763495426173989,
                    0.46082548735944456,
                    0.5347864489691199,
                    -0.47907074045552955,
                    -0.560004446343521,
                    0.8298263766087396,
                    -0.5981914125038383,
                    -0.1406039595462014,
                    -0.6086717992430426,
                    -0.9837067725126017,
                    0.860908926037045,
                    0.8991225462786552,
                    -0.20215161967196696,
                    0.10628762846444079,
                    1.3398948412114084,
                    -0.7138104638882525,
                    0.9381940552514699,
                    -0.6067337325429669,
                    0.4283762499802854,
                    0.11873011152076618,
                    -0.01498297113783821
                ],
                [
                    -0.3375770851008407,
                    -0.375522829881652,
                    -0.5639663330552341,
                    0.3402631898659196,
                    0.3843457938214196,
                    -0.1912431440315531,
                    -0.11543561186360313,
                    0.5011135449995521,
                    0.031143841412448747,
                    0.9442479468544063,
                    0.7408643136028107,
                    -1.396399673838278,
                    -0.9533868584277159,
                    -0.6922174373480869,
                    0.28020860537336256,
                    1.2083718290864411,
                    -0.6593018044945594,
                    0.11113262287870057,
                    -0.1657153460804674,
                    -1.422181466927682,
                    0.3986832208529899,
                    -0.3263537611717214,
                    -0.7686560114493953,
                    -0.015204588461329549
                ],
                [
                    0.5942238818937078,
                    0.3432737545408618,
                    -0.24848790624936837,
                    -0.1740034868290323,
                    -0.8877553258875174,
                    -0.945632217796663,
                    0.8615967051101356,
                    0.2838420714881501,
                    -0.9115779630156154,
                    -0.1771038087566584,
                    0.8905048142689614,
                    0.6068120140631271,
                    -1.022919541666294,
                    0.2900504033678354,
                    0.2019534823868967,
                    0.7843407549733168,
                    -0.527366686010099,
                    0.6550333820469401,
                    0.7497757158325689,
                    0.9177083975771312,
                    -0.2485201149680394,
                    -0.4464807221301384,
                    0.4658977133526336,
                    0.8666105397815113
                ],
                [
                    0.3386564183046456,
                    -0.03880743167015592,
                    -0.08079259122501238,
                    -0.5785112770717493,
                    0.348751171667217,
                    0.5456881869205487,
                    0.7558749863544298,
                    -0.7625105064823291,
                    0.3416556011966155,
                    -0.3599511678243265,
                    0.7661561998894101,
                    -0.6295464520174834,
                    -0.9401437529159976,
                    0.7769835511730078,
                    -1.5672104290808155,
                    -0.7107832357652671,
                    0.080500106773007,
                    -0.6783964482654306,
                    -0.9372766907726378,
                    0.006211083787419733,
                    -0.7319357459148651,
                    -1.0353227837171672,
                    0.8126131110397731,
                    -0.09160829920951803
                ],
                [
                    0.19542046697329538,
                    0.05503393093065496,
                    -0.6730413430789246,
                    0.8839977107775235,
                    0.14417528092449644,
                    -0.30959888660479845,
                    0.06662104074906357,
                    -0.01652396556507555,
                    -0.06797726462428373,
                    0.35869005186398234,
                    0.21199983060137192,
                    -0.4441009853858071,
                    -0.4661368983999298,
                    -0.499800813522903,
                    -0.39183142019804446,
                    0.8289975675850914,
                    0.3605647386299998,
                    0.5745394311084039,
                    0.8423381815126124,
                    -0.5393217880507447,
                    0.6556830214857087,
                    0.6202053737951284,
                    -0.4977225611205057,
                    -0.3822536491529026
                ],
                [
                    0.1745830083673789,
                    0.8413173979695012,
                    0.048806694568512596,
                    -0.3176975759322378,
                    -1.2013138153839302,
                    -0.3342161392651819,
                    0.9279391975153006,
                    -0.7307840836087883,
                    -0.6634455324035289,
                    0.12790237165655796,
                    0.46258451919811244,
                    0.5754376306000549,
                    0.19229130907323377,
                    -0.5476047487928581,
                    -0.25198734934580763,
                    0.15827475289430296,
                    -0.7051008788118321,
                    -0.42597484526630125,
                    0.22296198786715968,
                    0.6008404463557836,
                    0.7410395611684625,
                    0.90965423210626,
                    0.09398417363929522,
                    0.9199267554689093
                ],
                [
                    0.7850358791284604,
                    -0.40004031568212023,
                    0.31844099283694366,
                    -0.04464714926579916,
                    -0.953727593080019,
                    0.48960455474285725,
                    -0.8797718546569311,
                    0.13442247844591723,
                    0.13359184078597722,
                    0.5303935501291249,
                    -0.8974251905684208,
                    0.18885417404717575,
                    0.38365697336071514,
                    -0.31460069772939614,
                    -0.5499962245261553,
                    -0.12764229589971848,
                    -0.26333933820628297,
                    0.5446998694376352,
                    -0.5151662217227774,
                    -0.06045395846503267,
                    -1.0879301189428925,
                    -0.3574898243374512,
                    0.4751958254699251,
                    0.181905692508869
                ],
                [
                    -0.6011810941771699,
                    -0.5182240282239128,
                    -0.2632766692757939,
                    -0.8451983676797004,
                    -0.36825938223018206,
                    0.2884422987923586,
                    0.6536173674191952,
                    -0.22038761554936404,
                    0.09608070982971847,
                    0.17114830684480514,
                    -0.24842875567383174,
                    0.41585071257273476,
                    1.2147279040997085,
                    0.2692949919753885,
                    -0.4684252953032269,
                    0.8157506296734469,
                    -0.5516024711282131,
                    0.1480416784925797,
                    -0.11763215258792153,
                    -0.6669993888282483,
                    -0.6047773658487428,
                    -0.9167302919181012,
                    -0.8247625975727351,
                    0.6657662713148047
                ],
                [
                    1.0060512121002456,
                    -0.48698474864624003,
                    -0.8397999388160415,
                    -1.0276821670443967,
                    0.43492192389198425,
                    0.8858315526003159,
                    -0.7367204863134242,
                    0.4988060855132423,
                    0.0031872530781847513,
                    0.11518601732697628,
                    0.04763091345841779,
                    0.22037123536606978,
                    0.43260479977593846,
                    0.45105610491107695,
                    0.3526541351186267,
                    0.806918202598476,
                    -0.8264978282275828,
                    0.6152880487075485,
                    -0.17400936634197345,
                    0.2061594080831387,
                    0.15916434349299552,
                    0.024285926108854813,
                    0.6676104701536748,
                    -0.4936020342210703
                ],
                [
                    0.8129504185131524,
                    0.2289539992494862,
                    -0.4869926980677574,
                    -0.4189300727094089,
                    -0.6450566514103664,
                    0.6062079509740098,
                    -0.02377785891051921,
                    0.18867423948251533,
                    0.442254868318294,
                    0.4006589364718571,
                    -0.9744864936458962,
                    -0.31878766674620107,
                    -0.012289081927521754,
                    0.05275243841391722,
                    0.8917981384119023,
                    -0.5617752332843998,
                    0.9072938362473649,
                    0.5225870311854559,
                    0.00843907879826112,
                    -1.2365609823741084,
                    -0.06575735912473894,
                    0.7580309248430869,
                    -0.874489885269424,
                    0.7520355659422999
                ],
                [
                    -0.24607715730270094,
                    0.31167461379872985,
                    0.4263987862957225,
                    -0.3410293901375629,
                    0.4468196932971715,
                    1.3048480011099728,
                    1.1239244480547153,
                    -0.9998871386539904,
                    0.09443409682613067,
                    -0.5063168529856212,
                    -0.7475127099091557,
                    -0.43207079570645607,
                    -0.8984660826452873,
                    -0.5409530116128589,
                    -0.27141410292075824,
                    0.7817804656806184,
                    -0.5939451154143491,
                    0.19985450877357436,
                    -0.6859882443723785,
                    0.24917518520373183,
                    -0.8585428018505795,
                    0.5239170456312671,
                    -0.49050545760825137,
                    -1.267038200730897
                ]
            ],
            "b": [
                -0.025832245361530327,
                -0.11808089098058827,
                0.1502382258901992,
                -0.00038740080983228065,
                0.09119274141199343,
                0.01223900941372327,
                0.006777450719478327,
                0.035048098385446314,
                -0.044522134441101466,
                0.0006112256143536061,
                -0.018058129538999462,
                0.060422438695891686,
                0.011063005789077741,
                -0.11073171488151479,
                -0.0019079273368298767,
                0.0774240437878368,
                0.02610408494395599,
                0.04830133530742986,
                0.0031981520777062625,
                -0.11965392771185644,
                -0.01788795442249958,
                0.0412975259056163,
                -0.11125313488742652,
                0.011414820871386185
            ]
        },
        {
            "w": [
                [
                    -0.22687778950792395,
                    -0.96499476165165,
                    -0.5869307750249263,
                    0.22132651501460845
                ],
                [
                    0.195678234909007,
                    -0.08034670700137493,
                    -0.04018698807953554,
                    -0.5182213778527035
                ],
                [
                    0.2409136485799559,
                    0.14286353113152156,
                    -0.3951883818396681,
                    0.7824099480746484
                ],
                [
                    -0.809026245451784,
                    0.03064004650044478,
                    -0.1300422380676838,
                    1.0122057170642274
                ],
                [
                    -0.2756735658438995,
                    7.214255329986152e-05,
                    -0.629232149002848,
                    0.7398790832323775
                ],
                [
                    -0.21595073719265206,
                    -0.9198845754163447,
                    -0.7771475897370005,
                    -0.5521695333431625
                ],
                [
                    -0.44558364970120495,
                    0.31477594247284135,
                    1.0067146132703142,
                    0.9651305361779519
                ],
                [
                    -0.8655157454846913,
                    0.5855945805206387,
                    -0.7946271501105678,
                    0.684077987162669
                ],
                [
                    0.6384998092071683,
                    -0.664837879656975,
                    -0.9452687387153337,
                    0.6568937433831641
                ],
                [
                    0.045780069714303734,
                    -0.009828172909423491,
                    -0.19030144155318773,
                    -0.6630570755575877
                ],
                [
                    0.907932390210797,
                    0.22201727644852026,
                    0.5697015462530262,
                    -0.1287954434185869
                ],
                [
                    0.37220036570837234,
                    -0.39824074369006723,
                    -0.27183620173652995,
                    -0.24690635692742038
                ],
                [
                    0.46240799004924565,
                    -0.17712806317565205,
                    0.44423655057737144,
                    0.026987176741130214
                ],
                [
                    -0.8969470889473126,
                    0.8814760935779654,
                    -0.8525887386809209,
                    0.365364214059346
                ],
                [
                    -0.24607453638916468,
                    0.6603222907195995,
                    -0.10523837108070855,
                    0.8417290027554649
                ],
                [
                    0.013339980076255305,
                    0.19321860199101135,
                    -0.3175325539840484,
                    0.10280624164096341
                ],
                [
                    0.33922727540150993,
                    -0.7104469315037979,
                    0.9524598839166276,
                    0.490744568551649
                ],
                [
                    0.74198214970744,
                    0.695964877127393,
                    0.8181825171846397,
                    0.4830337188963507
                ],
                [
                    -0.047911818143787165,
                    0.33476774320529523,
                    0.036272620599982805,
                    0.24079213195381127
                ],
                [
                    -0.029001697681916634,
                    -0.09387475671579867,
                    0.28343110751980727,
                    -0.2478805617552427
                ],
                [
                    0.21782132263183362,
                    0.6950852636015457,
                    -0.0033857058561909004,
                    0.03976384549237062
                ],
                [
                    -0.04948845338582195,
                    -0.41885845007715294,
                    -0.8021293575083254,
                    0.7350098940691048
                ],
                [
                    -0.26730737460022336,
                    -0.7595519942323306,
                    0.4892222818560952,
                    -0.02561037095245824
                ],
                [
                    0.2673926520902554,
                    -0.4313636598858395,
                    -0.834247490523299,
                    -0.6574048783355282
                ]
            ],
            "b": [
                0.08096975164923524,
                -0.07870902091057279,
                0.06475783480041498,
                0.09340036763306754
            ]
        }
    ],
    "lookbacks": {
        "sma": 234,
        "ema": 10,
        "rsi": 47,
        "macd_f": 30,
        "macd_s": 38,
        "adx": 20,
        "trix": 50,
        "slope": 21,
        "vol": 9,
        "atr": 34,
        "mfi": 14,
        "bb": 60
    },
    "lock_days": 6.643602163317473
}