{
    "version": "v9_intra",
    "layers": [
        {
            "w": [
                [
                    -0.3396403199414799,
                    0.035105817637279185,
                    0.7635815586709783,
                    -0.13742953682419295,
                    -0.057646592190857944,
                    -0.7815980814217112,
                    -0.40839469913245063,
                    -0.8465857706920751,
                    -0.4978693030911839,
                    0.548774502926188,
                    0.6643284477272804,
                    -0.18173400510320228,
                    1.146148087207774,
                    0.6335781411328872,
                    0.413932135758048,
                    0.5947234480046445,
                    -0.417909764908398,
                    0.8041059436612455,
                    -0.5675871238598167,
                    0.19557905671359577,
                    0.14082700550207328,
                    -0.4115127913883819,
                    -0.9634202948152127,
                    0.22101070495358482
                ],
                [
                    -0.18450776186012446,
                    0.74500742279663,
                    0.31842737446412417,
                    0.5124484377653801,
                    -0.5982073548489197,
                    0.30328951202510723,
                    -0.23114819725678093,
                    0.2008078118396058,
                    0.4935119284401648,
                    0.3968858728699206,
                    -0.1912299302397083,
                    -0.294860865221295,
                    -0.1528116703570684,
                    0.22777162131809853,
                    -0.004113640363584896,
                    -0.5902765811918941,
                    0.4905486192348087,
                    -0.7259703863239084,
                    0.26230034590957674,
                    0.14272105939897162,
                    -0.020762581078671197,
                    0.07185401984814249,
                    -0.10327089363607204,
                    0.6608879323582428
                ],
                [
                    -0.29843115682876675,
                    -0.5479001579088529,
                    -0.42854807088159874,
                    -0.643375673286942,
                    -0.6154015014901242,
                    0.20438206109437546,
                    0.694602762918143,
                    0.1559238724756937,
                    0.21580734397201526,
                    -0.5072515186995706,
                    -0.5005962400506071,
                    -0.2953435086975387,
                    -0.30336115430681404,
                    0.2926769305956588,
                    0.636343283774029,
                    -0.22842501484484887,
                    -0.031102300350631332,
                    -1.0059748747101942,
                    0.6049883110262874,
                    -0.4371149866532818,
                    0.5068708614718129,
                    -0.04933778585146743,
                    0.11177666794722285,
                    0.5163524001555281
                ],
                [
                    -0.5563803221034797,
                    0.46645886601181924,
                    -0.061179836963138404,
                    0.562467090496728,
                    -0.32147823579057055,
                    -0.07763762499518595,
                    -0.6101441621433269,
                    -0.21744841935665726,
                    -1.146907455358226,
                    0.10150623538261694,
                    0.8517758652506623,
                    0.3530683907493043,
                    -0.5160721817658521,
                    0.8951119492955005,
                    0.4236546782839695,
                    -0.21211168727093127,
                    -0.5841125611980482,
                    0.4782275722000128,
                    0.23002855608599104,
                    0.43735285170467586,
                    -0.4141512787137552,
                    0.18630656267723295,
                    0.6192586582492668,
                    -0.4249236716842311
                ],
                [
                    -0.052919465818165645,
                    0.5946786610124979,
                    0.43042780933766456,
                    0.4197193246154611,
                    0.6863819464483986,
                    -0.5600973232735795,
                    -0.5879547320872469,
                    0.44453709839966227,
                    -0.026436750354663002,
                    -0.8676411335411663,
                    -0.28356824518174367,
                    0.2902483431199491,
                    -0.09781362449557685,
                    -0.41528654073132804,
                    0.1012605145480169,
                    -0.370540866400226,
                    -0.5951125390422988,
                    -0.4290893987663305,
                    0.7053907167264037,
                    -0.21844808344020145,
                    0.8666848294820085,
                    0.4756640172274284,
                    -0.05205025399901452,
                    -0.5042304099307459
                ],
                [
                    0.29016183792565364,
                    0.2301531240568481,
                    -0.1061199954278237,
                    0.7881743104192839,
                    -0.15931064761826438,
                    -0.48962448735011477,
                    0.05205946558510923,
                    -0.14512688918522723,
                    -1.4329174691158395,
                    -0.0981524661405905,
                    -0.966806211553462,
                    -0.05813220708808458,
                    0.3922882664288037,
                    1.118806372717462,
                    0.49057878396728377,
                    -0.40354944000616805,
                    -0.27685013401287784,
                    0.6538022999218437,
                    0.8019185545889321,
                    -0.20584651670175586,
                    -0.14170656842676768,
                    0.03046493222830433,
                    -0.18377629200135603,
                    -0.2011888609083666
                ],
                [
                    0.1412540304827061,
                    -0.15609457753614342,
                    0.5108525617021522,
                    0.05830799868618587,
                    0.7356842136439443,
                    -0.18660266880200693,
                    -0.3019832727766602,
                    -0.3600488131729774,
                    -0.19347333551405943,
                    0.6798300535721362,
                    -0.352038770493257,
                    -0.28966791631511946,
                    -0.13397093935804755,
                    0.6216696739840922,
                    -0.12319711704799986,
                    0.022396218777191824,
                    0.41998570234008475,
                    -0.05702923381622658,
                    0.24203512839029478,
                    -0.9855272280037084,
                    0.33881466574510377,
                    0.02882568445014401,
                    -0.39169939988665053,
                    -0.25408554832512464
                ],
                [
                    -0.46282378873142227,
                    0.03405727930415124,
                    -0.6940690649027781,
                    -0.4699135005666233,
                    -0.20558048376533306,
                    0.09625996193129768,
                    -0.5336026299621072,
                    0.8432077039338696,
                    -0.3673946692355853,
                    -0.6551846022727547,
                    0.5339940706492953,
                    -0.12916520805760073,
                    -0.26981292697775544,
                    -0.895041121374348,
                    -0.9018465474975219,
                    0.28020379529228273,
                    0.6155621886932889,
                    -0.1660640591662039,
                    -0.2175539787756521,
                    -0.14506280291069423,
                    -0.3387533484340225,
                    -0.128003029732018,
                    -0.46809628542964093,
                    0.3393442099575336
                ],
                [
                    -0.6094727692559206,
                    -0.05780378998452776,
                    -0.26664005219612796,
                    -1.0357452375712803,
                    0.0738738111832733,
                    -0.11929326854819133,
                    -0.4372345083299491,
                    0.3386577889909127,
                    -0.11100875660630365,
                    -0.6198073584302686,
                    0.5394448244279897,
                    0.3397723351935308,
                    -0.714519051457706,
                    -0.1567342632968203,
                    0.07337787461410494,
                    -0.07791273577668816,
                    0.5215998383624304,
                    0.3450155884861456,
                    0.03839112097878556,
                    0.11027967153764379,
                    -0.36736080570325946,
                    -0.1873741407423368,
                    -0.7300015646509371,
                    -0.9638623469525819
                ],
                [
                    -0.2873525886261168,
                    0.046245767625989746,
                    0.26039350055744515,
                    -0.4685364129713573,
                    -0.2696244232283766,
                    -0.30105655983040847,
                    -0.1781435663880501,
                    -0.4939343086654034,
                    1.1796210382968058,
                    0.2787766449793715,
                    0.2502691619725846,
                    -0.20508321738488727,
                    0.22293495793746346,
                    -0.8341258480227849,
                    -0.398707781793229,
                    -0.22222049911520997,
                    -0.052408998403433896,
                    -0.024229350593196357,
                    -0.13792254665010237,
                    0.09031847069264927,
                    -0.9614524046578296,
                    -1.0211420710333536,
                    -0.4136520740901137,
                    0.5841129944015936
                ],
                [
                    -0.20840656362540663,
                    -0.8397926205223427,
                    0.5362639769106345,
                    0.09416565726114255,
                    0.688073449177923,
                    0.3557906054840311,
                    0.8221788494776585,
                    0.5373405954409183,
                    -0.4786201179970431,
                    0.6967811461562738,
                    0.40864998281336895,
                    0.06521310221758189,
                    -0.47297379053869126,
                    -0.26484507681402064,
                    -0.43577829658762773,
                    -0.2554596280427016,
                    0.6887130200636187,
                    -0.5753580244130949,
                    0.07774621213399428,
                    -0.39810665040754917,
                    -0.2299300311890638,
                    0.38242343200212053,
                    0.3793028428685319,
                    -0.3007315142742099
                ],
                [
                    0.07354507250498031,
                    -0.24218889977061217,
                    0.1003731929870645,
                    0.5828792896894127,
                    0.2755358010185639,
                    0.8778522291371849,
                    -0.55759298994006,
                    0.6386854636787561,
                    0.13312140319498908,
                    0.288461488713709,
                    -0.646417101284409,
                    -0.07923546832877865,
                    -0.67396753087317,
                    0.3442292770128515,
                    -0.4937888161823434,
                    0.12719778499738882,
                    -0.7767710547963198,
                    -0.44786470678839624,
                    0.27152774261817436,
                    -0.37447025105892223,
                    -0.7860804440532437,
                    -0.6316638268284065,
                    -0.8415978867094452,
                    0.7414461957176482
                ],
                [
                    -0.8228012569955148,
                    -0.26012404341247486,
                    0.05581999416434567,
                    0.6498621285246591,
                    -0.17918036086760747,
                    0.45454838616599375,
                    0.3024079915373497,
                    0.03347840462956399,
                    0.5392054957130501,
                    -0.05218894749311465,
                    0.231627885827501,
                    0.13229699125173228,
                    -0.2771175341061558,
                    0.07993304479886967,
                    0.21921117825203934,
                    0.1490257693885301,
                    -0.6284201728259736,
                    -0.07307612885843723,
                    0.3077664444541398,
                    -0.4863287685815475,
                    -0.12183674425427153,
                    0.442089271803164,
                    -0.11430648411375048,
                    0.03938413709076687
                ],
                [
                    0.6759965136272332,
                    -0.04976426405172249,
                    0.17987573162985454,
                    -0.30335296458020816,
                    0.34549494692440463,
                    0.12445802233715819,
                    -0.27205310609200484,
                    -0.23297700759798204,
                    0.3516362624700592,
                    -0.702866104062467,
                    0.14841777726061453,
                    0.09404586044454942,
                    0.3242860546939974,
                    -0.379167530473199,
                    0.05158485471063448,
                    1.6481627938305332,
                    -0.5115570637403718,
                    0.22774696523292784,
                    0.244852481293963,
                    0.5084486449084941,
                    -0.6183079760305771,
                    0.034632664216978526,
                    -0.5976485093854804,
                    0.4405661267753911
                ]
            ],
            "b": [
                -0.03489489311250925,
                -0.0266646973195593,
                0.14655266291052882,
                0.07779003335281477,
                0.2435123550564388,
                0.08393335364496511,
                -0.014222882226461772,
                -0.22832643310682355,
                0.01727490741334923,
                -0.13427225048908115,
                0.10367151841561315,
                -0.01608763049200542,
                0.05604914333125283,
                -0.28841331064473813,
                -0.03539112456736121,
                0.04694586375111425,
                0.008717754285570898,
                0.11312331639990361,
                0.1496060560368656,
                -0.017839366650628557,
                0.28672043419756654,
                -0.0010047947148390385,
                0.013929861456493022,
                0.013188196359678703
            ]
        },
        {
            "w": [
                [
                    0.2380884408314923,
                    0.4017216844924525,
                    -0.49709534665820065,
                    0.3897855356802359
                ],
                [
                    0.07225215507779068,
                    -0.11759603418404324,
                    -0.5066498151857436,
                    -0.014275429523422825
                ],
                [
                    0.43202325120309654,
                    0.42130975296568934,
                    1.2246501715628906,
                    0.25828939466720807
                ],
                [
                    -0.33887452705779986,
                    -0.9632248707818455,
                    0.6963336798912938,
                    0.8300574423331523
                ],
                [
                    -0.49228153979486905,
                    0.9611212701605387,
                    -0.5155808451787426,
                    0.4052562949603532
                ],
                [
                    -0.013448975959941913,
                    0.6635055505131094,
                    -0.3312174755140253,
                    0.018059431174387526
                ],
                [
                    -0.43442132662367494,
                    -0.3538695843724514,
                    -0.19378597267779452,
                    -0.7703731320644795
                ],
                [
                    0.41828706809558625,
                    -0.1423870087991867,
                    -0.6122859958784497,
                    -0.07940989374150134
                ],
                [
                    0.22856498926787866,
                    -0.14185971595850133,
                    -0.7517864190488254,
                    -0.14936688933352898
                ],
                [
                    0.46018090031812897,
                    0.6007824161542601,
                    -0.23380894069920852,
                    0.5180593256688635
                ],
                [
                    0.5490958507526107,
                    -0.5448230653840038,
                    -0.49222324896618314,
                    0.5018792957913137
                ],
                [
                    0.3223749397298563,
                    -0.7362314624876267,
                    -0.17545996289634447,
                    0.32112430871762443
                ],
                [
                    -0.07792704269574953,
                    -0.15231249169349184,
                    -0.011235106353669748,
                    -0.7929251369640233
                ],
                [
                    0.5382971453157859,
                    0.33116195052443514,
                    0.6538745279880247,
                    -0.2372140257107526
                ],
                [
                    0.5498884609067689,
                    0.8617497232317188,
                    0.6921628601228907,
                    -0.044163472869017575
                ],
                [
                    -0.9516373740794832,
                    -0.35182803494881176,
                    -0.20755727609021307,
                    0.9433718334249109
                ],
                [
                    0.6098315274635504,
                    0.3095066440734212,
                    0.562108875847542,
                    0.33149565270142495
                ],
                [
                    0.8482043491908163,
                    -1.0551189053652779,
                    0.24331069633653093,
                    -0.4465936139838041
                ],
                [
                    -0.9419209365392233,
                    0.3352409387941042,
                    0.4334854994007399,
                    -0.26907269196926487
                ],
                [
                    -0.26061394872089594,
                    -0.40444648167273606,
                    0.8075586065462202,
                    0.7180604609348565
                ],
                [
                    0.048070302265789136,
                    -0.2605795494723129,
                    -0.895924644796806,
                    -0.4470338716692047
                ],
                [
                    -0.24806382667125743,
                    0.559786872491064,
                    -0.32970053514652464,
                    0.8133783751130498
                ],
                [
                    -0.6547675573884354,
                    -0.41778420880808226,
                    0.3504759638252984,
                    0.6926594696087682
                ],
                [
                    0.4163012329010994,
                    -0.290533703907596,
                    -0.902749180250347,
                    0.04175465824727326
                ]
            ],
            "b": [
                -0.10234508841025433,
                -0.16798481768588866,
                0.0706890085306599,
                0.09073385735894726
            ]
        }
    ],
    "lookbacks": {
        "sma": 194,
        "ema": 39,
        "rsi": 29,
        "macd_f": 17,
        "macd_s": 21,
        "adx": 50,
        "trix": 15,
        "slope": 50,
        "vol": 60,
        "atr": 14,
        "mfi": 13,
        "bb": 53
    },
    "hysteresis": 0.005,
    "smoothing": 0.98
}