{
    "version": "v9_intra",
    "layers": [
        {
            "w": [
                [
                    -0.30309416350864393,
                    0.18252360502155232,
                    0.7311552176206928,
                    -0.050170879739776235,
                    -0.11353689067162354,
                    -0.9491485775683883,
                    -0.29914752344398454,
                    -0.8479005456044669,
                    -0.3959723447372207,
                    0.5928579523542401,
                    0.6389323086223103,
                    -0.09296493216743987,
                    1.1018110234604683,
                    0.6555335625806292,
                    0.4217241869121476,
                    0.552719148768667,
                    -0.44846001947197867,
                    0.6292753286083579,
                    -0.6108176976485375,
                    0.2705562675629059,
                    0.337913223023368,
                    -0.5716149683666054,
                    -1.0153787369296032,
                    0.46435100131096113
                ],
                [
                    -0.2389178307453209,
                    0.6155408127974031,
                    0.411937867706592,
                    0.5598931846527297,
                    -0.47838380723485885,
                    0.2980208366656306,
                    -0.44448204186661316,
                    0.126229816001259,
                    0.562062359704562,
                    0.3542163006914505,
                    -0.08887933546410513,
                    -0.4619903113534001,
                    -0.28515322586499764,
                    0.20012889586094385,
                    -0.0027477452557667383,
                    -0.6360180001795213,
                    0.46728650089817064,
                    -0.7506373498594853,
                    0.4435708232811738,
                    0.05879078937521953,
                    -0.1777177589995262,
                    0.15214677746642433,
                    -0.10191890056717606,
                    0.5418785294711745
                ],
                [
                    -0.4033307169570584,
                    -0.6194089423906021,
                    -0.5332174390666322,
                    -0.5678623354779263,
                    -0.5251931797043845,
                    0.21172196225804202,
                    0.7720871874271493,
                    0.2774247590913986,
                    0.10336099885317544,
                    -0.5431689285542888,
                    -0.33428771577158345,
                    -0.2619676031362118,
                    -0.2883055301558066,
                    0.29709245132568024,
                    0.5396511314917718,
                    -0.24643876899995,
                    -0.012982844813155729,
                    -1.2057523322186707,
                    0.645853858170617,
                    -0.42411023218894184,
                    0.6739176847217698,
                    -0.10016022183354065,
                    0.18133014344163934,
                    0.4265018640475639
                ],
                [
                    -0.6761832443441703,
                    0.25801759272676245,
                    -0.14478962169756354,
                    0.5068224110894046,
                    -0.4677757265173411,
                    -0.18904134008369,
                    -0.5733888915987794,
                    -0.33278880162045327,
                    -1.1837232839029517,
                    0.22832368613200477,
                    0.9951457167947884,
                    0.3472663914271806,
                    -0.43114778208588345,
                    0.8496236167050062,
                    0.3614467851074676,
                    -0.337499054864986,
                    -0.5536338405709519,
                    0.43400113122603223,
                    0.23473039813481358,
                    0.34895889435701316,
                    -0.5505063225888381,
                    0.34365894745956127,
                    0.5523376336360823,
                    -0.2055674489745174
                ],
                [
                    -0.030121255392611464,
                    0.613572804102211,
                    0.4578045306516984,
                    0.25813132272262157,
                    0.6542486217565427,
                    -0.5949941854634421,
                    -0.5160062251041121,
                    0.4081322419781003,
                    -0.20671178650437916,
                    -1.0009984292559309,
                    -0.2406827794810644,
                    0.3411078577119336,
                    -0.02201220345572841,
                    -0.3660695957566929,
                    0.0978994569656832,
                    -0.37700925627093584,
                    -0.4923496065470957,
                    -0.5652493195920694,
                    0.7817654766978982,
                    -0.15605078570166672,
                    0.7519099785767052,
                    0.47632653141108827,
                    -0.28264195174640727,
                    -0.35612639334349006
                ],
                [
                    0.40451014527590784,
                    0.18613964024069518,
                    -0.09090236369772367,
                    0.9465899683491049,
                    -0.0542390818153147,
                    -0.42663996758536415,
                    0.06756419104069114,
                    -0.32988011799509726,
                    -1.5483497133953221,
                    -0.08260172946413295,
                    -0.9599950073458019,
                    0.02460528105454611,
                    0.5046901831893331,
                    1.0795447039577148,
                    0.391986446047571,
                    -0.3493768693964127,
                    -0.30911214610188575,
                    0.4728465271662867,
                    0.8387533337611442,
                    -0.1556991549016403,
                    -0.09662007902157839,
                    -0.033308556086220235,
                    -0.2578059597304633,
                    -0.09232664821319847
                ],
                [
                    0.15675844911772585,
                    0.044581083191240045,
                    0.3957974733607523,
                    0.005565199158574688,
                    0.5832351323837957,
                    -0.20712762462761203,
                    -0.4112459541070024,
                    -0.27075691855725537,
                    -0.11337036830048491,
                    0.5573605838628843,
                    -0.43450339238499647,
                    -0.2841084292100724,
                    -0.20819228037798101,
                    0.49221133252998406,
                    -0.19152081371581575,
                    0.013085949575604015,
                    0.3692627677281585,
                    -0.05408538872937488,
                    0.1959662897610983,
                    -0.9399075737595572,
                    0.23090330688808416,
                    0.02861381504978216,
                    -0.3055367133786493,
                    -0.17300001143425617
                ],
                [
                    -0.4905809242589484,
                    -0.11712881508203202,
                    -0.6327581809823818,
                    -0.47349349900547405,
                    -0.20352779512896213,
                    0.04037205628352904,
                    -0.4139158479433343,
                    0.7900028965778076,
                    -0.2561856208148445,
                    -0.795374254816023,
                    0.5535620404142899,
                    -0.02928884800681075,
                    -0.43165387164471897,
                    -0.8554915570805697,
                    -0.9104198182832732,
                    0.2988823305219812,
                    0.6752199684356532,
                    -0.21727568356339566,
                    -0.21049989145212336,
                    -0.20575880145545572,
                    -0.27586209876663975,
                    0.001306769150742319,
                    -0.5300217848423465,
                    0.4211049808279699
                ],
                [
                    -0.7447263076804302,
                    -0.0742775340910626,
                    -0.3706928726426991,
                    -1.002808962035258,
                    0.06938281210353911,
                    -0.17564427960890497,
                    -0.3626989421886012,
                    0.330441359171933,
                    -0.02486454663256211,
                    -0.6543779217622445,
                    0.49515250537947814,
                    0.39785038162931735,
                    -0.850730955525247,
                    0.05143793428132026,
                    -0.03520626943612498,
                    0.015872577331129966,
                    0.4362114184365363,
                    0.39254933184202684,
                    -0.0312753487668954,
                    0.06742352262637882,
                    -0.38569995323888456,
                    -0.16118559079942565,
                    -1.0157848309837458,
                    -0.9257562344787389
                ],
                [
                    -0.33308000369808033,
                    0.03413614832327694,
                    0.291424450480088,
                    -0.5019325490901951,
                    -0.27285729966552336,
                    -0.29780874809863733,
                    -0.04769199822912504,
                    -0.46384759520630614,
                    1.1608157462379858,
                    0.3501015289679843,
                    0.3859789233335327,
                    -0.24786902794080978,
                    0.3901980782484946,
                    -0.944557676081765,
                    -0.40291497251593095,
                    -0.09157888054163758,
                    0.029832384585238608,
                    0.12492843977985271,
                    -0.041600565608768736,
                    0.15641929427692952,
                    -1.0273133913690415,
                    -0.8958679911146636,
                    -0.4772453320344931,
                    0.4844550921823443
                ],
                [
                    -0.06901579883142325,
                    -0.9409783212947721,
                    0.605089384733453,
                    0.18438756301050796,
                    0.7294469400603765,
                    0.3670417613579263,
                    0.9890647350587688,
                    0.671530331028013,
                    -0.48940776600896535,
                    0.7544983518436007,
                    0.4036472789342642,
                    -0.1132903745957469,
                    -0.5080962460755286,
                    -0.24792504174383698,
                    -0.5403657551178395,
                    -0.32749630901897053,
                    0.6314627458923865,
                    -0.5104760577750393,
                    0.2004052706041401,
                    -0.3611927796830164,
                    -0.33355912611980953,
                    0.334867359595102,
                    0.2261311890737087,
                    -0.5166859581843603
                ],
                [
                    0.14880735192605032,
                    -0.10532249877862063,
                    -0.20511408739918427,
                    0.6631394521158095,
                    0.2859042801229874,
                    0.8902254878907662,
                    -0.6004761611701486,
                    0.7779101545036103,
                    0.0053077300674301275,
                    0.2314086798900946,
                    -0.579068833893369,
                    -0.10066205199923434,
                    -0.4960212548900301,
                    0.21433866973551718,
                    -0.4763186187059794,
                    0.2516064705706964,
                    -0.7325608695872261,
                    -0.40129116288555966,
                    0.2387062880819122,
                    -0.31272352489960015,
                    -0.8691222184286641,
                    -0.5520105966086092,
                    -0.7586681479190187,
                    0.7226212611342101
                ],
                [
                    -0.7785980442999236,
                    -0.29376062266740816,
                    -0.12522409448522825,
                    0.6236721110460532,
                    -0.4260145967335487,
                    0.5482377827226332,
                    0.32035431518810825,
                    -0.020604254992431723,
                    0.5190953623340873,
                    0.062374868773402176,
                    0.30063848123851933,
                    0.08181410441369998,
                    -0.3021730560659489,
                    0.03749476356211298,
                    0.19647507176147316,
                    0.13096430110786916,
                    -0.5245217669141797,
                    -0.07895259729634849,
                    0.1973578285797735,
                    -0.31682935717992977,
                    0.01492712810814762,
                    0.3764096374518629,
                    -0.08111851497788046,
                    -0.12226733892550087
                ],
                [
                    0.6423078655541236,
                    -0.08723324166120296,
                    0.235839677879203,
                    -0.3235659272679431,
                    0.48314246632350316,
                    0.19090645537187093,
                    -0.28620645899517105,
                    -0.2858015221094541,
                    0.35343219594275,
                    -0.7462164874292757,
                    0.40397762473010135,
                    0.22704510369237937,
                    0.3481339419200859,
                    -0.312561842223652,
                    0.1269978757047668,
                    1.7086208388392428,
                    -0.437483790786767,
                    0.16895330978606632,
                    0.29634705556001184,
                    0.6286534600986964,
                    -0.7354305297398357,
                    0.12318913861620075,
                    -0.5867944677921364,
                    0.5252238005532711
                ]
            ],
            "b": [
                -0.05212380817505746,
                -0.049049124379182504,
                0.15556923313678703,
                -0.006587719832946745,
                0.1855387497425178,
                0.06363883824574057,
                -0.03057826187654147,
                -0.17442129198969358,
                -0.010525525313917625,
                -0.19844587300759062,
                0.09775247117288632,
                -0.07051740788855021,
                0.028408058707819348,
                -0.2904362548120142,
                -0.04001154128362736,
                0.015219955726751982,
                0.0758664028272765,
                0.10656080069868402,
                0.12343428450263506,
                -0.03292556117135955,
                0.3369090097684358,
                -0.003508513439173043,
                0.01028348695046893,
                -0.011861333488623494
            ]
        },
        {
            "w": [
                [
                    0.17166582453015322,
                    0.6055787981816754,
                    -0.492971182372409,
                    0.19959785611678305
                ],
                [
                    0.20699608217476345,
                    -0.09357436727889866,
                    -0.4823739183586209,
                    -0.06141367378653446
                ],
                [
                    0.3050354730642816,
                    0.41472970097191936,
                    1.1922982416993906,
                    0.37574522213807987
                ],
                [
                    0.02334292320159194,
                    -0.7358439518209313,
                    0.8741281968527392,
                    0.7320791284645978
                ],
                [
                    -0.5151752342850147,
                    0.9713388643665792,
                    -0.5313397678749305,
                    0.24388373471984182
                ],
                [
                    0.2073381375032794,
                    0.3574564855507776,
                    -0.1883626057495286,
                    -0.04174137535236454
                ],
                [
                    -0.24775496968886423,
                    -0.25802402880073655,
                    -0.1003708340354954,
                    -0.8444546075298069
                ],
                [
                    0.418329285561097,
                    -0.1311217438164787,
                    -0.5421196041926702,
                    -0.10341917025306964
                ],
                [
                    0.23434740685282324,
                    -0.1955017792124415,
                    -0.7205800376400331,
                    0.04183699567077147
                ],
                [
                    0.5295602131789378,
                    0.6448229808323547,
                    -0.302061555476679,
                    0.4044885639881658
                ],
                [
                    0.4328645970530355,
                    -0.5948830282181247,
                    -0.5297352683142089,
                    0.5639859402101414
                ],
                [
                    0.22626051785767565,
                    -0.6860313861030349,
                    -0.048430736520051504,
                    0.4069120532223055
                ],
                [
                    -0.18696907992445194,
                    -0.07421357315299174,
                    -0.19020419222476512,
                    -0.7310144907120751
                ],
                [
                    0.6206347246620708,
                    0.43239857885594263,
                    0.778781571256707,
                    -0.0773132822631036
                ],
                [
                    0.5446899228725655,
                    0.7183044625267516,
                    0.6807286809632632,
                    0.11231603077663514
                ],
                [
                    -1.1671423751564014,
                    -0.30756510271482823,
                    -0.2448495064264078,
                    0.9209094995717086
                ],
                [
                    0.9732163579449303,
                    0.4337735366364593,
                    0.4881425276734835,
                    0.4696096785184334
                ],
                [
                    0.8103226288155485,
                    -0.8030571681482739,
                    0.04875588085198786,
                    -0.5628883438877177
                ],
                [
                    -1.1092766682184085,
                    0.42188995805336,
                    0.4136793207540466,
                    -0.2432462728310416
                ],
                [
                    -0.17036297155392258,
                    -0.44049587926145284,
                    0.7528798526866326,
                    0.7193329911395313
                ],
                [
                    -0.04566571759682755,
                    -0.22763466530886464,
                    -0.8843220767443647,
                    -0.5454259341379961
                ],
                [
                    -0.2781963513944831,
                    0.6411455064701719,
                    -0.1745636658821712,
                    0.9506701791041869
                ],
                [
                    -0.9124210355400144,
                    -0.4965711606198541,
                    0.47945847832584115,
                    0.8690781772364049
                ],
                [
                    0.5034390833393108,
                    -0.1365189947452499,
                    -1.119606058009448,
                    0.0656969245421884
                ]
            ],
            "b": [
                -0.1025246425581266,
                -0.15824972903332346,
                0.04465247560546717,
                0.032660529826568835
            ]
        }
    ],
    "lookbacks": {
        "sma": 123,
        "ema": 10,
        "rsi": 26,
        "macd_f": 15,
        "macd_s": 19,
        "adx": 49,
        "trix": 15,
        "slope": 47,
        "vol": 58,
        "atr": 15,
        "mfi": 22,
        "bb": 60
    },
    "hysteresis": 0.01313325791874629,
    "smoothing": 0.98
}