{
    "version": "v9_intra",
    "layers": [
        {
            "w": [
                [
                    -1.7322328929021031,
                    0.08030960935270409,
                    -0.2722296382653082,
                    -0.637759533008062,
                    0.4990591969586017,
                    1.5661153816734796,
                    0.8585263506740166,
                    0.8607553099159968,
                    1.7324269434950188,
                    -1.6403951854300602,
                    -0.8665378384313911,
                    -0.9134138466026337,
                    0.42372881488148295,
                    -0.22957132729529284,
                    1.4770622795586228,
                    -0.4083759725053191,
                    -2.262170071954899,
                    1.3558220801301342,
                    -0.6588166854007796,
                    1.3737596416823088,
                    0.699348796521539,
                    0.21965673097909177,
                    -1.2823124371437455,
                    -0.49142737657352314
                ],
                [
                    -0.01653735125478839,
                    1.0503440899150316,
                    0.9719498816257791,
                    -0.7400228205836733,
                    0.6099723770803045,
                    -0.226714212090094,
                    0.6212874182190083,
                    0.8089474535269964,
                    1.126321823744532,
                    -0.5782439198128642,
                    0.44317325057151696,
                    0.7078981020715922,
                    -0.25686997287824115,
                    1.095940028717558,
                    0.22912924822473396,
                    0.3684101059084916,
                    -1.5620615975336647,
                    -0.11605240221585372,
                    1.069334146354837,
                    0.7311399599824377,
                    1.432303112020658,
                    -0.9742170061204769,
                    0.3823634245435433,
                    1.6586774693862256
                ],
                [
                    -1.6779671659559134,
                    1.0508437099599395,
                    2.0661260220038673,
                    -0.3351290899442759,
                    1.4501904332987472,
                    2.112184245642463,
                    0.11937911508593692,
                    -0.13611305185358089,
                    0.6200468980183093,
                    1.6576987757740784,
                    -0.18261690446427298,
                    0.4080084288562621,
                    -0.4850489650972373,
                    0.4877490153229943,
                    0.34433383534784323,
                    0.7809361665320682,
                    -1.1211591692227691,
                    -2.0395242772024487,
                    0.8217029293985837,
                    -0.6849008633380623,
                    -1.5117044130010684,
                    0.6388558613775912,
                    -0.5470985855598021,
                    -0.7949350968188377
                ],
                [
                    -0.47190966293147296,
                    0.6814615062936858,
                    -0.7830775487515131,
                    -0.3188036502830346,
                    0.38957280964662366,
                    -2.0070258292156895,
                    0.09801997003774907,
                    -0.7972673617985201,
                    -2.8627874349820304,
                    0.3263568773337121,
                    -0.5378231190747063,
                    0.6358981839787301,
                    0.053305041877718784,
                    0.3157499144706887,
                    0.05164482535728411,
                    -0.4238083181818911,
                    0.38487418994275,
                    2.1074955572135243,
                    -1.2575117495102575,
                    -0.7897640056058461,
                    -1.0178721550219838,
                    -0.5416776206455646,
                    2.6456234230176947,
                    -0.18622386699248183
                ],
                [
                    0.1242024621183565,
                    -0.19484470988122454,
                    -1.7194831047652912,
                    -0.20947151376283238,
                    0.9537384712902885,
                    -1.200924226303406,
                    0.9720922496760565,
                    -0.10245592902235763,
                    -0.2853341907687572,
                    2.012162794308188,
                    0.4562374787612684,
                    0.749634780711379,
                    1.4560181423200316,
                    -1.5574141193587503,
                    -1.1000333152617616,
                    0.8820544042333893,
                    -2.2707260957841195,
                    -0.8153633113168746,
                    0.5639873284066435,
                    -0.23329467159380107,
                    -1.0428599456501004,
                    -0.17232134766953472,
                    -1.2324554802714593,
                    -2.612780393952996
                ],
                [
                    0.32047130402672674,
                    0.9765189423103886,
                    2.1245434367407166,
                    -0.8314475642356066,
                    1.8068032125682871,
                    -0.5174088984285288,
                    0.8880970059555123,
                    0.14083867902543717,
                    -0.3914557020132044,
                    1.862380545548822,
                    -0.14068428924150322,
                    0.16519743234615697,
                    -0.12629634969221523,
                    0.5955825349831497,
                    -0.7900914500616022,
                    0.09177595932110003,
                    -1.77582330580563,
                    0.4918975221183821,
                    0.2960986769470122,
                    -1.7548287524601491,
                    -0.561271127281644,
                    0.647475378119709,
                    -1.1563542534515356,
                    -2.185434693597424
                ],
                [
                    -1.1901409354730084,
                    -0.5896573597713215,
                    0.298048677918748,
                    -1.0652369569672566,
                    -0.7699497947434244,
                    -0.047728808784989946,
                    -1.2906613653541399,
                    -0.7286845253682717,
                    0.17245568715498122,
                    -0.8812459690146031,
                    -0.49243565983022686,
                    -1.0435462681139678,
                    0.46352573350442366,
                    0.34758718104991093,
                    -0.1449357894030922,
                    1.727412088673223,
                    0.23989404012252985,
                    -1.1001756209707416,
                    -0.546873889975824,
                    2.293870485751822,
                    1.1205482195091583,
                    0.08432471856831124,
                    -1.5226310130016052,
                    -0.5015287685983171
                ],
                [
                    -1.7820130702782608,
                    0.4548080036101986,
                    1.3776171161795672,
                    1.0409092942381317,
                    -0.42379826132321946,
                    -0.4957543286804691,
                    1.0358966845864475,
                    -0.0044919253187755,
                    0.9241056130738063,
                    1.4103468022693149,
                    0.25066401891765205,
                    -0.33341223573355805,
                    -0.015246546923306459,
                    -0.7681072071804678,
                    0.301495149637832,
                    1.4973750021615846,
                    -0.04255154457752014,
                    0.48317503028751135,
                    -2.126089401426502,
                    1.1026975554229017,
                    1.5055352000418083,
                    0.25771155824137715,
                    -0.323197545525287,
                    -0.047145812106706486
                ],
                [
                    0.6397433346881736,
                    -1.2984102614443813,
                    -0.42596545352078846,
                    -0.15385746690958949,
                    0.782554863056312,
                    0.9677927852595283,
                    -0.11916134619498289,
                    0.6929868144446597,
                    -1.4551509814634704,
                    -0.18308249325823173,
                    -1.511770229549636,
                    -0.771831568128021,
                    -0.4587514079696631,
                    0.8056948167061717,
                    -1.3132509713615341,
                    -1.7704163920826363,
                    0.20365516155735702,
                    1.1163546657518735,
                    0.8448971195385813,
                    1.222065025835199,
                    -0.455701143686062,
                    1.0419767979251606,
                    1.569757431076181,
                    -0.826153832995065
                ],
                [
                    -0.7062945736524291,
                    -0.7659599538564064,
                    -0.24253479202629358,
                    -0.10845000193132565,
                    0.8787650805069042,
                    -1.774471933032664,
                    -2.8610543317586288,
                    -0.19151559025441336,
                    0.28528438932267847,
                    0.1402522379684315,
                    -0.9198682606441535,
                    0.3293903714546546,
                    0.9774497628508511,
                    0.1907004212149498,
                    -1.265275529473925,
                    0.7892996286800095,
                    0.41407127520190945,
                    1.0216215933235713,
                    -0.81966635020522,
                    -0.5231804561196942,
                    0.905576132713257,
                    -0.2212961373819546,
                    -0.2579632643489565,
                    -0.7449476786238194
                ],
                [
                    -0.3103146836346359,
                    -1.5443567501128854,
                    0.08175433364746285,
                    0.3961397969188893,
                    -0.1715453112154004,
                    0.31023446101562946,
                    0.23771041339469737,
                    1.5291809278309187,
                    -0.029169125988222744,
                    -1.138729804790416,
                    -0.17034046176141032,
                    -0.6904821447804504,
                    0.08118742295059952,
                    0.20025891087589612,
                    -0.16866365720174795,
                    -0.6869569449528924,
                    1.8199524277306358,
                    0.074218218716095,
                    -0.0328029350159339,
                    1.158008200096459,
                    0.47262976312688115,
                    -2.4518065320529523,
                    -0.6138386083127638,
                    0.1632240211741442
                ],
                [
                    -0.27821105859967366,
                    1.0153743182022408,
                    -0.5024958794685103,
                    1.7149840531130593,
                    -0.2814115363249431,
                    -0.6640378326882825,
                    1.824070796739666,
                    -0.6738967184052176,
                    0.04625768658069593,
                    1.5520365516297732,
                    0.45780420744704997,
                    -0.18801083684748326,
                    -0.15611586136477232,
                    0.5951307006104684,
                    -1.1132929564323777,
                    1.1218232721752366,
                    -0.07313186616321662,
                    -1.372380507351399,
                    -0.34372481606471506,
                    0.9572998368018328,
                    -0.9952460776326489,
                    -0.6037653108821938,
                    0.7912992170373543,
                    -0.9692959032658282
                ],
                [
                    0.42956356978689425,
                    -1.2475869236551325,
                    0.4270778969764478,
                    -0.9675781016168259,
                    -0.12278831209278543,
                    1.053066592349256,
                    1.8968879480856229,
                    -0.45643357669344153,
                    -0.13303570633880954,
                    2.369951285120626,
                    0.06807740281531052,
                    -0.0008507585401865414,
                    1.0208400876459796,
                    -0.05711190953570238,
                    -0.19390161437666448,
                    0.4299278607859172,
                    -1.4816449150931579,
                    0.3165681886132071,
                    -0.4106624355744224,
                    -3.7933005423646287,
                    0.5713878914236014,
                    0.04820639912967724,
                    0.2524459705455046,
                    -0.22561240581950806
                ]
            ],
            "b": [
                -0.49914869048250005,
                0.21026157413062502,
                -0.020320476498022672,
                0.006053414402806014,
                0.17691266004856082,
                -0.5731088920446936,
                -0.37884582482200924,
                -0.02120894014762014,
                0.15061064588044837,
                0.10421715903310097,
                0.17553076556511635,
                -0.29889621853533205,
                -0.17975113320409053,
                0.40483598191728454,
                -0.052865416804718984,
                -0.5572906966073051,
                0.3671983628513448,
                0.011326263198154066,
                -0.14370548685841075,
                -0.1289622397051825,
                0.06343691268618645,
                0.04373814359708664,
                -0.04326537816837239,
                -0.31016698042842966
            ]
        },
        {
            "w": [
                [
                    -1.7701734274812253,
                    0.26764887500621615,
                    -0.2670333308480133,
                    2.960435955974016
                ],
                [
                    3.6339250901933298,
                    -0.6205461976129796,
                    -1.2920766092085532,
                    1.1591353791749914
                ],
                [
                    1.5721938824841049,
                    0.5618819754628644,
                    -1.0930020330388897,
                    0.7167944435991821
                ],
                [
                    1.311099929623171,
                    -2.0840469620328603,
                    -1.0965266204881496,
                    -0.5821190704009155
                ],
                [
                    -0.2582035041228655,
                    2.7985058792008513,
                    1.415362644245401,
                    -1.1501152378747361
                ],
                [
                    -1.4995948551704013,
                    3.2151423712330764,
                    -0.9878618585015293,
                    -1.4571679906770754
                ],
                [
                    -0.9387675019472312,
                    -2.414062819226509,
                    -0.21558311626452756,
                    2.7438541660987337
                ],
                [
                    2.165937912852896,
                    2.03607157120609,
                    2.342627143662214,
                    2.629901671627752
                ],
                [
                    2.6203628101329484,
                    0.8408932108222125,
                    0.1901114958201292,
                    1.623832645386157
                ],
                [
                    0.9793903411790621,
                    -2.989945824916796,
                    -0.746307182183726,
                    -3.2475645968839455
                ],
                [
                    1.228178027913568,
                    1.3312660773666858,
                    1.4921020505388731,
                    1.825644710248402
                ],
                [
                    0.14573778769153195,
                    -1.8777517972752922,
                    -1.9700752475828243,
                    -1.341284144904128
                ],
                [
                    0.4078725788648095,
                    -2.285158185711071,
                    1.7052982752146333,
                    1.9873710715340305
                ],
                [
                    1.480241128448577,
                    -2.087857421271542,
                    -0.7226435421545577,
                    2.850582871615625
                ],
                [
                    -1.892023335233873,
                    -2.06211910338571,
                    2.157356808350892,
                    -1.2105387140906234
                ],
                [
                    2.370359283874015,
                    -1.1838176335888462,
                    0.993363987932883,
                    1.8929383022977084
                ],
                [
                    2.8075667479634814,
                    -0.6593500334534893,
                    -0.2887265276314942,
                    -2.0641136629263657
                ],
                [
                    -2.4784964094231174,
                    -0.35198192074697043,
                    1.359074879975996,
                    0.837964096500811
                ],
                [
                    -1.8537942495297788,
                    0.18183353951280012,
                    2.6901587085033754,
                    -1.617558043033318
                ],
                [
                    -0.23627064592345937,
                    -0.5587793805137992,
                    1.5337846718183552,
                    2.5203173141224404
                ],
                [
                    -1.6405433124187487,
                    -2.213342573553256,
                    1.2515042224292319,
                    -0.17054004904224593
                ],
                [
                    0.14144695811970143,
                    -3.1442192653944696,
                    0.09914470665447575,
                    0.772044628047031
                ],
                [
                    1.7100169763504312,
                    0.20926078134342602,
                    -1.7002241232146695,
                    1.44430703377323
                ],
                [
                    -0.5433572761860643,
                    -2.069463478462521,
                    0.7031066134687884,
                    2.420429173399975
                ]
            ],
            "b": [
                0.1433175083244091,
                0.28669985922734487,
                -0.251501593783782,
                0.050871140288315575
            ]
        }
    ],
    "lookbacks": {
        "sma": 47,
        "ema": 10,
        "rsi": 6,
        "macd_f": 20,
        "macd_s": 15,
        "adx": 24,
        "trix": 32,
        "slope": 50,
        "vol": 12,
        "atr": 47,
        "mfi": 48,
        "bb": 60
    },
    "hysteresis": 0.005,
    "smoothing": 0.98
}