{
    "version": "v7_deep_binary",
    "layers": [
        {
            "w": [
                [
                    -0.4746746212058573,
                    -0.23765371404812488,
                    0.058154788708203994,
                    -1.081216257561291,
                    0.07599328876831395,
                    -0.9407841278488352,
                    0.10357141722786536,
                    0.2919302298906837,
                    0.08484886374474992,
                    0.8841328412067833,
                    -0.09182793148534159,
                    0.8231359119308614,
                    -0.7052760427552849,
                    0.17944093555360568,
                    0.3449851301644052,
                    1.072218228471077,
                    -0.4263208167819936,
                    -0.6087572562611455,
                    -0.16168333355363734,
                    -0.27280605447434425,
                    -0.532958453058422,
                    0.8587437736329723,
                    -0.3590474322537506,
                    -0.9542742053405822
                ],
                [
                    -0.4302826615642539,
                    0.9186800485795217,
                    0.4149173164129539,
                    -0.44306951397740046,
                    0.37680916034476647,
                    -0.6561000165307153,
                    -0.12877210788599247,
                    0.026417722825454293,
                    -0.33408446953447274,
                    0.862060305790944,
                    0.38779915511115265,
                    0.022277145139590684,
                    -0.8826870242634913,
                    0.5617971638483468,
                    0.049983320498005517,
                    0.23064412367517012,
                    -0.8863124579079524,
                    0.12815548756055173,
                    -0.8206185322654905,
                    -1.119440670537096,
                    0.9303430308158986,
                    0.17174655742893444,
                    -0.45174558728505687,
                    0.4783603665470743
                ],
                [
                    -0.5885794402581319,
                    -0.4776125979289777,
                    -0.6084355306930908,
                    0.7351826533680753,
                    0.211032023651557,
                    0.6303961330186998,
                    0.4099004035124202,
                    0.20948893311525743,
                    0.42824502498133943,
                    0.4957621904465642,
                    0.49701493711463335,
                    0.19568910311958548,
                    0.28021166718809104,
                    0.3400056812147057,
                    -0.08272559764621598,
                    1.031419273901076,
                    -0.17110472742741295,
                    0.7768663096865174,
                    -0.028910062325997767,
                    0.5529318318435119,
                    -0.3385165708246133,
                    0.4856170689412435,
                    -0.5037771833775464,
                    0.6098277531567657
                ],
                [
                    0.3134359691455758,
                    0.647094934301009,
                    0.9001943586415834,
                    -0.4271065628608641,
                    0.529454911273673,
                    -0.15382840109817236,
                    1.089059768002538,
                    0.43771758116011233,
                    -0.17182214847358906,
                    0.30346430171125355,
                    0.24631841633191928,
                    -0.44670299223427007,
                    -0.11723970291067905,
                    0.5085875752181347,
                    -0.16687549805207935,
                    -0.735726723937907,
                    -0.02677126596462192,
                    1.1818267222597598,
                    -0.19135739190204892,
                    -0.16311418350871743,
                    -0.9678953037029695,
                    0.0727929013312592,
                    -0.06563768474565182,
                    -0.8588747127309407
                ],
                [
                    0.9253351106660371,
                    -0.7408666283169566,
                    -0.623233603474937,
                    -0.8130106392004262,
                    0.520104584211819,
                    0.28781333232854556,
                    0.37301343589313873,
                    0.2763313806064239,
                    -0.40057028112357224,
                    -0.2791497956834787,
                    0.8367935781373673,
                    0.8179616161985619,
                    -0.5225991218872478,
                    -0.14976305177809435,
                    0.7691090829647458,
                    -0.0389059491580268,
                    0.73124124843492,
                    -0.641793110335754,
                    0.825898883243877,
                    0.05639797213513964,
                    0.8848139683612302,
                    0.7950028758873171,
                    -0.6309812327842119,
                    0.03262646755374313
                ],
                [
                    0.7769844574326831,
                    0.7643321747080059,
                    -0.9246332922139749,
                    0.6404555976134897,
                    0.23432059294664387,
                    0.6454323103034749,
                    -0.6778189081261399,
                    -0.4729934325492322,
                    0.7506801397792578,
                    -0.6147743085965119,
                    -0.7042573131422756,
                    0.22670604796631186,
                    -0.34160496983354394,
                    0.06129787725443337,
                    1.1070541627902928,
                    0.30488082723516396,
                    0.3221217511618419,
                    1.0651240375777236,
                    0.4051231229181225,
                    0.5914468647527872,
                    0.2823077644249943,
                    -0.6244563530326239,
                    0.8373367649455263,
                    0.5126644749458625
                ],
                [
                    -1.1316389910208926,
                    0.3471648912610136,
                    -0.31192585779041704,
                    0.834992393611682,
                    -0.9070112750528648,
                    -0.1385687198357854,
                    -0.5023659964753734,
                    -0.06918488973796019,
                    -0.4216906504888237,
                    0.025943229711261992,
                    0.3696533406903956,
                    0.3607187909715698,
                    0.8344766358172628,
                    0.06387927080958339,
                    -0.5321024324180073,
                    0.6141827506938404,
                    -0.13538960013729445,
                    0.42658992059253437,
                    0.5807297778333087,
                    -0.21563713557870168,
                    -0.08560814403106676,
                    -0.8014297458957096,
                    -0.3440860593301429,
                    -1.1351744402121158
                ],
                [
                    -0.7785943239141009,
                    -0.3940258931595061,
                    -0.39397585995990725,
                    -0.42606165648496896,
                    0.31090503258698354,
                    0.077870112376043,
                    -0.4175306245641467,
                    0.09694646276881198,
                    -0.03103676510014932,
                    0.3149239074240939,
                    1.2826317424967173,
                    0.4131477154933592,
                    0.7365049185255653,
                    0.7862768963262668,
                    0.32238849606154635,
                    1.2485168063076204,
                    0.7564897631982499,
                    0.8644139874311291,
                    -0.5957338185477451,
                    -0.8026073238765026,
                    0.3691777080932476,
                    0.45374763872897417,
                    -0.6743499376582274,
                    -0.3433410261537799
                ],
                [
                    -0.2115642560054754,
                    0.20204296766151317,
                    1.0351061811606777,
                    0.06686947667928014,
                    -0.07533266717384104,
                    1.2043552239916093,
                    -0.5988971892990338,
                    -0.5675973029683862,
                    -0.8322512227377317,
                    -0.37135678990101634,
                    0.9460627372339909,
                    -0.18481471160142784,
                    0.6628242991289082,
                    -0.9194924449625579,
                    -0.52277492149097,
                    0.18053864719561102,
                    -0.43625712177791454,
                    -0.9403704512104246,
                    -0.4936833558149665,
                    -0.12044895776173795,
                    -0.5454191660948716,
                    0.412579359432253,
                    0.5219598337094196,
                    -0.3594432868913264
                ],
                [
                    0.48580850427304423,
                    -0.21442965026440497,
                    -0.26978243426406484,
                    -0.5151336306313986,
                    -0.008692344600185378,
                    0.5920674094427606,
                    0.2969791549132298,
                    0.6092660923312989,
                    0.8485072732565888,
                    -0.34006581819509196,
                    -0.26656306602331364,
                    0.7904358096937025,
                    0.7109619101039512,
                    0.6567633070179304,
                    -0.021033149733965594,
                    0.9419659203775382,
                    -0.7860690940347924,
                    -0.08294092622150179,
                    -0.8315155534879237,
                    0.37186020499788947,
                    0.09375585266634723,
                    0.8646126306041209,
                    -0.4705254073638796,
                    -0.299619588973986
                ],
                [
                    0.13418637292824506,
                    0.6365035783117137,
                    -0.5420791649774398,
                    0.4761856744429883,
                    0.31703608420804796,
                    0.21294611894748358,
                    0.2992514335097458,
                    0.48019850238663125,
                    -0.05046852433398796,
                    -1.0032843249680103,
                    0.13690599343064086,
                    -0.7200399941119298,
                    -1.0446787683437335,
                    0.6967027514583204,
                    0.9012505319534448,
                    0.787173806890516,
                    -0.9505153997873408,
                    -0.1883372220469265,
                    -0.757759121005311,
                    -0.6817486120528085,
                    -0.7017111836305632,
                    0.48268520002276144,
                    0.48850022684215477,
                    0.583870454990367
                ],
                [
                    0.02251360724251006,
                    -0.7713913780367907,
                    0.153627819518273,
                    0.9052877735485672,
                    0.3051105128344874,
                    0.5949023080331406,
                    0.387631269294179,
                    0.4860695728213493,
                    -1.1505001805269142,
                    -0.6477107245685854,
                    0.635352768341192,
                    0.9756462166824149,
                    0.8913561799155455,
                    -0.5377378409632108,
                    -0.30647188213849436,
                    0.3481307862941094,
                    -0.5848618221390809,
                    -1.0568385040367763,
                    0.38367681034579715,
                    0.9231422116580588,
                    -0.2506983991615537,
                    -0.15691901469728348,
                    -0.009606921150459897,
                    -0.29975471881380966
                ],
                [
                    -0.08680447864438975,
                    0.9627268578816361,
                    0.9038137659615089,
                    -0.35788631772806656,
                    0.2123468975476957,
                    0.32496139879446484,
                    0.6237431960605572,
                    -0.7749736265608027,
                    -0.21914625486190376,
                    -0.811879125134853,
                    0.1014532838178237,
                    -0.2797929781089974,
                    0.5223276903901238,
                    -1.1042808428592663,
                    -0.8708694608648649,
                    0.5109686848019046,
                    0.5096154651537466,
                    0.9577473747784898,
                    -0.6005154235657892,
                    0.21686187383095962,
                    1.0707747896307847,
                    -0.3740189522455914,
                    -1.0485324369780966,
                    0.11800480749438796
                ]
            ],
            "b": [
                0.04022180857285819,
                0.007034809560302827,
                0.14380350792019342,
                0.04472400997339802,
                0.10313931735928543,
                0.044707957704260795,
                -0.03024693544637493,
                -0.05486053613943033,
                -0.04180319187225831,
                -0.12893330622678803,
                -0.2660015676231149,
                -0.06067714024569518,
                0.10777830907558783,
                0.013960731502277671,
                0.10939024508799006,
                -0.19774601790093865,
                0.08644683150875745,
                -0.04462310541829602,
                -0.1519162158583186,
                0.10005680257008837,
                -0.0409007917579649,
                0.12271524176126201,
                -0.04878866480778731,
                0.11292651825544105
            ]
        },
        {
            "w": [
                [
                    -0.9763817249629965,
                    -0.8728936131347098
                ],
                [
                    0.8346519652415819,
                    0.01472125213257404
                ],
                [
                    0.4308375397474187,
                    0.6922883777444391
                ],
                [
                    -0.5703718128761381,
                    0.17367500197107513
                ],
                [
                    -0.8216060529538081,
                    0.2851177760632292
                ],
                [
                    0.7730879869701793,
                    -1.4063259400014345
                ],
                [
                    0.05642344354651428,
                    -0.13199499678569004
                ],
                [
                    0.2105496877732234,
                    0.8515338602168936
                ],
                [
                    0.009083135056835345,
                    -0.064517225717208
                ],
                [
                    -0.08819028979007248,
                    -0.49235160093703734
                ],
                [
                    -0.2946388916002635,
                    0.6537344371996784
                ],
                [
                    0.6607251692369442,
                    1.1132693906669207
                ],
                [
                    -0.27354524533153746,
                    -0.8622023617378052
                ],
                [
                    -0.8582151441124625,
                    -0.27473223526136004
                ],
                [
                    0.16154065275938645,
                    0.5712784795888536
                ],
                [
                    -0.9259928629835971,
                    -0.5992811605388453
                ],
                [
                    0.5406470477076125,
                    0.7417366578498437
                ],
                [
                    0.14984656878874592,
                    0.5595895126957907
                ],
                [
                    0.3062348500706223,
                    0.2430886879188226
                ],
                [
                    -0.7594020056175377,
                    0.8974664793946848
                ],
                [
                    -0.34601998955303875,
                    0.5673242388415403
                ],
                [
                    0.181056046203597,
                    0.050065477402194386
                ],
                [
                    0.19364803814975612,
                    -0.7555220169778804
                ],
                [
                    -0.37497691117567183,
                    0.5351238496245093
                ]
            ],
            "b": [
                0.029067205124086403,
                -0.011290400208311003
            ]
        }
    ],
    "lookbacks": {
        "sma": 259,
        "ema": 188,
        "rsi": 49,
        "macd_f": 18,
        "macd_s": 19,
        "adx": 14,
        "trix": 47,
        "slope": 5,
        "vol": 47,
        "atr": 5,
        "mfi": 42,
        "bb": 5
    },
    "lock_days": 6.171044551710081
}