{
    "version": 7.1,
    "layers": [
        {
            "w": [
                [
                    -0.5343088573818233,
                    -0.21252244556228134,
                    0.0654427524091885,
                    -1.0539729847421215,
                    0.12790005264206034,
                    -0.9245353726553952,
                    0.05746383251656146,
                    0.26433076829995933,
                    0.0840752965967948,
                    0.8427812043172811,
                    -0.0717306421944768,
                    0.8082555370109963,
                    -0.6699709544720451,
                    0.1814409178975378,
                    0.32648208608981233,
                    1.0359927251336052,
                    -0.4732967910376916,
                    -0.6472257495743298,
                    -0.12118446178839572,
                    -0.3159974934380048,
                    -0.5420671957738622,
                    0.9321636723503933,
                    -0.38478337580033894,
                    -0.9503628572076112
                ],
                [
                    -0.422689577784777,
                    0.9281540769246333,
                    0.45907015151187835,
                    -0.5058283496207676,
                    0.28492871366780487,
                    -0.6191776464805163,
                    -0.08568035163249967,
                    0.041280221089903736,
                    -0.41388445034391147,
                    0.8775509750792251,
                    0.35900041385189607,
                    0.0230676875047972,
                    -0.8240273973375181,
                    0.49575918357371473,
                    0.06649413345144833,
                    0.2334602044820122,
                    -0.9162303320778006,
                    0.22524186308350877,
                    -0.7226545275700009,
                    -1.0611581256156926,
                    0.9117971561151134,
                    0.19440946266634546,
                    -0.44808169509355733,
                    0.4348922451705214
                ],
                [
                    -0.5861805201484395,
                    -0.4337572343241334,
                    -0.6174529746187287,
                    0.7278771414289722,
                    0.20156703245926788,
                    0.6690045746244088,
                    0.43304559243994173,
                    0.24656468833436274,
                    0.36743571872027275,
                    0.594473799523423,
                    0.3993857210250461,
                    0.12603539282715415,
                    0.35589244922651064,
                    0.3004444379597417,
                    -0.00971152242161985,
                    1.0351558104279894,
                    -0.12561992316770412,
                    0.7839293338639014,
                    -0.06886101327623552,
                    0.5768805025288449,
                    -0.3609977114067425,
                    0.5005613334294743,
                    -0.49422571549126654,
                    0.6113580124382113
                ],
                [
                    0.21285484648403563,
                    0.6693787502976164,
                    0.9921183621970308,
                    -0.3813673193982472,
                    0.4632177475136333,
                    -0.11230605447936638,
                    1.0573928234461925,
                    0.4809870082715443,
                    -0.19159515851323672,
                    0.2551345083252318,
                    0.34070797055057434,
                    -0.3008365123346832,
                    -0.1825982626401279,
                    0.5119010884433074,
                    -0.15750021866766858,
                    -0.768301696567531,
                    -0.10153258442659119,
                    1.2172165848532714,
                    -0.16801940465247764,
                    -0.12426224653631386,
                    -0.9980790244867423,
                    0.06963553003816962,
                    -0.15741112374773797,
                    -0.8506410974265141
                ],
                [
                    0.8590537125076345,
                    -0.7492190978822827,
                    -0.6226075587182025,
                    -0.8736912576791892,
                    0.5006766655036646,
                    0.385682061568495,
                    0.3816775245276256,
                    0.3257315429793644,
                    -0.4492732487067017,
                    -0.3225883365556657,
                    0.813181834880775,
                    0.716532746528166,
                    -0.5551541073913765,
                    -0.19209806868699322,
                    0.7836175589390807,
                    -0.1159452810299802,
                    0.6412209063930091,
                    -0.6106054770639147,
                    0.8669531619061301,
                    0.06526925171699735,
                    0.9065880204894687,
                    0.769013082652048,
                    -0.6229541029115357,
                    0.07068926536431792
                ],
                [
                    0.7931308495760754,
                    0.841255575366506,
                    -0.9091665400561937,
                    0.6420885597472613,
                    0.20859393545433547,
                    0.6806481106639146,
                    -0.6636523590137514,
                    -0.47264815851007713,
                    0.7736684399369742,
                    -0.6549425020314589,
                    -0.6754944829157554,
                    0.24171886785987004,
                    -0.30914527461221686,
                    0.10547747200661664,
                    1.0662370365533858,
                    0.23993785685078722,
                    0.3407459874342468,
                    1.0457532928798388,
                    0.45887379600406986,
                    0.5500820437057505,
                    0.2791977354354529,
                    -0.6866114954161827,
                    0.9907399796036463,
                    0.5356533968680695
                ],
                [
                    -1.0662128192490135,
                    0.37471329257306574,
                    -0.37970134201001493,
                    0.8398295178980555,
                    -0.9619504601571987,
                    -0.212121310554963,
                    -0.5402482446318347,
                    -0.15746041294240448,
                    -0.4045950990313781,
                    0.03771260428219449,
                    0.36329414226604495,
                    0.34098136276872043,
                    0.8684439194659148,
                    0.05193916728656282,
                    -0.5322802008031816,
                    0.5671415261957966,
                    -0.09047128909527463,
                    0.3843919655213385,
                    0.5414826811086102,
                    -0.22852892332027963,
                    -0.1446827771789095,
                    -0.7434783341858193,
                    -0.44180449285640666,
                    -1.138863247258034
                ],
                [
                    -0.7189016807972111,
                    -0.4115472721991369,
                    -0.39996791783630126,
                    -0.3371100101300255,
                    0.37394491109829986,
                    -0.00856294371576631,
                    -0.3237233332193281,
                    0.14543184353298885,
                    0.08609168105583057,
                    0.3432829527516107,
                    1.3939783150132021,
                    0.4469298927564792,
                    0.7584777939579006,
                    0.7509259693274848,
                    0.3640534816981618,
                    1.1409185766561571,
                    0.6965784655922254,
                    0.9165713689217778,
                    -0.6115984886161919,
                    -0.81278106229163,
                    0.4076290826680087,
                    0.5059391676253067,
                    -0.6743996346120348,
                    -0.2339087398406463
                ],
                [
                    -0.1946842716244614,
                    0.21579229741533473,
                    0.9769396447149472,
                    0.07418720929315008,
                    -0.12976937958984847,
                    1.2084953924356368,
                    -0.5687506683243342,
                    -0.5047795749943694,
                    -0.8343840020778879,
                    -0.3754790276167647,
                    0.9702136062430641,
                    -0.19595619391670574,
                    0.6065308517497476,
                    -0.9285587065228165,
                    -0.566068511403129,
                    0.1209484494631426,
                    -0.5178947403764861,
                    -1.037663334566533,
                    -0.5398608345379315,
                    -0.10720462359533536,
                    -0.6200037572317478,
                    0.372495045479754,
                    0.46955220460859176,
                    -0.4711847794706667
                ],
                [
                    0.44553143250945776,
                    -0.1033132396322611,
                    -0.19450463665802892,
                    -0.562114693404114,
                    -0.07492253901426488,
                    0.538224360668012,
                    0.304078368795181,
                    0.6591866847365773,
                    0.935337312357876,
                    -0.3630406073478873,
                    -0.23718527055699634,
                    0.7744319422354105,
                    0.6891416663171491,
                    0.6671232034760766,
                    0.03928712449034509,
                    0.8904934492128617,
                    -0.7901558566352641,
                    -0.07511120809099539,
                    -0.7939416220130895,
                    0.438590119919822,
                    0.09572416825269636,
                    0.8470988137081735,
                    -0.46132344977668277,
                    -0.28400387887397877
                ],
                [
                    0.12135290633347451,
                    0.7402030380303772,
                    -0.471148052849189,
                    0.4084493345316127,
                    0.24844208772133364,
                    0.1848489735136208,
                    0.296594540003676,
                    0.5219840654689495,
                    -0.13943253491829466,
                    -1.0375208050859857,
                    0.041032208392507014,
                    -0.7396251836308377,
                    -1.1165882594289753,
                    0.7183373169766417,
                    0.8646058922150173,
                    0.7767778786138263,
                    -0.9110071718880048,
                    -0.21760415144554465,
                    -0.7880011418013587,
                    -0.6748261802898555,
                    -0.7337224221021195,
                    0.4533209513139512,
                    0.4656184678028361,
                    0.5756159357150035
                ],
                [
                    0.04301669708570592,
                    -0.7125832591016706,
                    0.044206293797462326,
                    0.9958679351449008,
                    0.31938493798979134,
                    0.5673141334200535,
                    0.31861525495295384,
                    0.5058676947980908,
                    -1.2055450770590783,
                    -0.6932431107613202,
                    0.7160702159203427,
                    0.8969558689051871,
                    0.8945320109884829,
                    -0.5734161805722545,
                    -0.2774105773074133,
                    0.30084125994819916,
                    -0.5827240127386226,
                    -1.048381141347205,
                    0.39566975754420713,
                    0.9407906298679974,
                    -0.26328901093325474,
                    -0.20933494451026044,
                    0.09522635103001124,
                    -0.2584781886950286
                ],
                [
                    -0.101698539673392,
                    0.9506685635355279,
                    0.927191428113764,
                    -0.3154047872373274,
                    0.22767359259591546,
                    0.2711721116025092,
                    0.610869116870731,
                    -0.7080663104450363,
                    -0.20132353145133142,
                    -0.7455449150014598,
                    0.143325128862342,
                    -0.18789667641855762,
                    0.590454356746219,
                    -1.106528559150896,
                    -0.8460452005435231,
                    0.6075800623080543,
                    0.46388695008313197,
                    0.9264585109437974,
                    -0.5507473258338221,
                    0.23202435868419244,
                    1.0645523999806432,
                    -0.35455119924035267,
                    -1.0010479037278794,
                    0.03991382186056612
                ]
            ],
            "b": [
                0.027048462780881084,
                0.022619926952096678,
                0.16854304220937616,
                0.048631060353450495,
                0.12755528860792004,
                0.04185055705744196,
                -0.022677181945607566,
                -0.03467620098432143,
                -0.03161856554728933,
                -0.11205661698939606,
                -0.2500205026923648,
                -0.07303109150599599,
                0.12271410813501464,
                0.027155400630177073,
                0.1277058586198619,
                -0.17129660301667907,
                0.09804130942136127,
                -0.041222667779788835,
                -0.12965874257916327,
                0.12809057409393818,
                -0.035207601519800964,
                0.13679356074456656,
                -0.07551917916071552,
                0.09484457113509175
            ]
        },
        {
            "w": [
                [
                    -0.9763817249629965,
                    -0.8728936131347098
                ],
                [
                    0.8346519652415819,
                    0.01472125213257404
                ],
                [
                    0.4308375397474187,
                    0.6922883777444391
                ],
                [
                    -0.5703718128761381,
                    0.17367500197107513
                ],
                [
                    -0.8216060529538081,
                    0.2851177760632292
                ],
                [
                    0.7730879869701793,
                    -1.4063259400014345
                ],
                [
                    0.05642344354651428,
                    -0.13199499678569004
                ],
                [
                    0.2105496877732234,
                    0.8515338602168936
                ],
                [
                    0.009083135056835345,
                    -0.064517225717208
                ],
                [
                    -0.08819028979007248,
                    -0.49235160093703734
                ],
                [
                    -0.2946388916002635,
                    0.6537344371996784
                ],
                [
                    0.6607251692369442,
                    1.1132693906669207
                ],
                [
                    -0.27354524533153746,
                    -0.8622023617378052
                ],
                [
                    -0.8582151441124625,
                    -0.27473223526136004
                ],
                [
                    0.16154065275938645,
                    0.5712784795888536
                ],
                [
                    -0.9259928629835971,
                    -0.5992811605388453
                ],
                [
                    0.5406470477076125,
                    0.7417366578498437
                ],
                [
                    0.14984656878874592,
                    0.5595895126957907
                ],
                [
                    0.3062348500706223,
                    0.2430886879188226
                ],
                [
                    -0.5819670991657876,
                    0.8974664793946848
                ],
                [
                    -0.34601998955303875,
                    0.5673242388415403
                ],
                [
                    0.181056046203597,
                    0.050065477402194386
                ],
                [
                    0.19364803814975612,
                    -0.8814779124960218
                ],
                [
                    -0.37497691117567183,
                    0.5351238496245093
                ]
            ],
            "b": [
                0.029067205124086403,
                -0.011290400208311003
            ]
        }
    ],
    "lookbacks": {
        "sma": 235,
        "ema": 200,
        "rsi": 50,
        "macd_f": 30,
        "macd_s": 31,
        "adx": 19,
        "trix": 34,
        "slope": 5,
        "vol": 51,
        "atr": 5,
        "mfi": 59,
        "bb": 19
    },
    "lock_days": 6.171044551710081
}