{
    "version": "v7_deep_binary",
    "layers": [
        {
            "w": [
                [
                    -0.9097912398653326,
                    1.1959268273815387,
                    -0.12436879983286407,
                    0.08300151803869733,
                    0.5674954437724293,
                    -0.6840888249330096,
                    -0.5204266616542972,
                    0.37452301820622785,
                    0.2520844306010058,
                    -0.5486042615264747,
                    -0.8099222524592397,
                    0.5092229822121928,
                    0.08494965249169974,
                    0.4740751028771684,
                    0.087640247836552,
                    -0.8641040694597129,
                    -1.0800853537226234,
                    0.35750656525172314,
                    -0.07489616075183803,
                    -0.83152415820615,
                    0.022742514032904934,
                    0.34827206859997323,
                    0.624986719356798,
                    -0.3405290209229974
                ],
                [
                    0.026853016887921563,
                    0.7711154593041664,
                    0.5937803854901738,
                    0.8650329143891089,
                    -0.935980914841797,
                    0.9668065864931364,
                    0.14469697490897454,
                    0.7762860464912893,
                    0.039075854595121,
                    -0.24480782742237434,
                    0.19570453790191383,
                    0.2272934386925904,
                    -0.3885614310321372,
                    0.8197883950744714,
                    0.4769790985054002,
                    0.22085707476867852,
                    -0.873348192897873,
                    -0.7970028411100871,
                    0.2507833152535489,
                    -1.0811364144211555,
                    -0.2500074827573578,
                    0.8252289867583485,
                    0.05967289385137474,
                    0.9214291659083064
                ],
                [
                    -0.8342745907224217,
                    0.43144688931153813,
                    -0.2753393334971195,
                    0.6082435420166562,
                    0.8384659840777837,
                    0.8400732943415911,
                    0.4272761252259126,
                    -0.010395166941272752,
                    -0.7297906102429862,
                    -0.3061182425590608,
                    -0.7217159527512443,
                    0.5483060130328261,
                    -0.8288586024470206,
                    0.12965202015246496,
                    -0.17189417670295165,
                    0.3640224157406651,
                    -0.8437635701910607,
                    -0.4753561148151218,
                    0.04122320792693145,
                    0.28435189605869743,
                    -0.13599042409134787,
                    0.8664274436025944,
                    -0.43134861480550685,
                    0.9748195268076635
                ],
                [
                    -0.121426809436636,
                    -0.8929381877883499,
                    -0.047738411229853325,
                    -1.003035913173116,
                    -0.21860538644041871,
                    0.9377301890663724,
                    0.7799065027741434,
                    -0.3492960875488339,
                    0.7229846683198459,
                    0.6990092282871547,
                    0.42223784885249893,
                    -0.7805877147489289,
                    0.678221683283067,
                    0.891253294917579,
                    0.4805323887215902,
                    0.380063584085654,
                    -0.7251404745495104,
                    -0.866524114595191,
                    0.4509864716783116,
                    -0.245548053533531,
                    -0.8303492698099839,
                    0.3803875418403849,
                    0.1900337764247375,
                    0.5419488673695616
                ],
                [
                    -0.3583785508144782,
                    -0.6256330681115341,
                    0.8274887021920125,
                    0.6365935414047238,
                    -0.49304106410047255,
                    -0.7093916240259995,
                    -0.6865034372127828,
                    0.30125964599425575,
                    0.5144164966011364,
                    0.9056326764091998,
                    0.9539377383158903,
                    -0.10677528861118371,
                    0.0184504580636764,
                    0.02385741999685546,
                    0.3843514386006516,
                    -0.03575059778139373,
                    -0.06671779493046191,
                    0.5946100394354216,
                    -0.13594121477651933,
                    -0.9327693931637632,
                    0.9720170628530341,
                    0.754752393824112,
                    -0.012385784476175239,
                    1.0220538043763348
                ],
                [
                    0.4637974040576892,
                    0.38073794372766545,
                    0.7731792733686063,
                    -0.4813721229473926,
                    -0.33494937614010467,
                    -0.8042938500332363,
                    0.5548662288798895,
                    0.1838281962304556,
                    1.062720216874917,
                    0.2373835924708817,
                    -0.6484429112562866,
                    -0.324113553222354,
                    -0.5118015677006942,
                    -0.4613843392843448,
                    0.17385000853398677,
                    0.62183988954692,
                    0.03788680831916457,
                    0.49531180404570063,
                    0.5108539411436318,
                    -0.8889043348695678,
                    0.8119205201279664,
                    0.2911335195500729,
                    -0.7272148135569331,
                    -0.01047110983435813
                ],
                [
                    0.9690735843684596,
                    -0.20882110602872178,
                    -0.2799905671092835,
                    0.42142330455046023,
                    0.9259074333205906,
                    0.1802410269845359,
                    0.17886278411149054,
                    0.7180933058911404,
                    -0.9696087578305622,
                    -0.6288704687689611,
                    -0.7951721082621375,
                    -0.7330450902656702,
                    0.8187380801356264,
                    -0.860790903744865,
                    0.7444574196527225,
                    -0.5387720857983419,
                    -0.8067886208357379,
                    0.6002677721613059,
                    0.09819105771087636,
                    0.5049010700694813,
                    0.586468440164938,
                    0.9755009171487796,
                    0.7526621755110122,
                    0.3243573358333448
                ],
                [
                    0.2528884107272045,
                    0.4196080688354057,
                    -0.11077889085992476,
                    0.23096511906186473,
                    -0.7400422897287199,
                    -0.2674795673212048,
                    -0.7605206392363834,
                    0.659582901999759,
                    -0.782090215685105,
                    -1.124387742503314,
                    0.7300665589455068,
                    0.9542236210571677,
                    0.3758187685203728,
                    0.150164330819904,
                    0.9371530717311255,
                    -0.12101007374114506,
                    -0.2957469649704354,
                    -0.15847559472599448,
                    -0.011168367657929945,
                    -0.6425424075194286,
                    0.6345019788586381,
                    1.046828698362757,
                    0.1791849331913063,
                    -0.23785232110275506
                ],
                [
                    -0.3848940474224407,
                    0.8302844226765811,
                    0.5233789497250229,
                    0.5842382272929055,
                    0.858541589713135,
                    -0.2457001162612042,
                    -0.49870752476686125,
                    0.27682107100029496,
                    -0.6395404196551833,
                    0.0767541431127376,
                    0.5382990996010819,
                    -0.37214186200097277,
                    -0.5971424887363679,
                    -0.23947482131350187,
                    -0.48635618423260624,
                    0.353891947502674,
                    0.1390221058126565,
                    0.556780446166193,
                    -0.8573433696768877,
                    0.771309869888509,
                    0.4735993875004621,
                    -0.5257588005559912,
                    -0.4462414395357596,
                    -0.14400944019414724
                ],
                [
                    1.0907151583955168,
                    0.6388017553298793,
                    -0.8077766471225607,
                    -0.16735124361556458,
                    -0.6260184112503112,
                    0.4125419259442069,
                    -0.7619811422824799,
                    -0.8028421249107783,
                    -1.0250750094535295,
                    0.7336078166984802,
                    0.19203380418937704,
                    -0.9412948228605121,
                    0.08381149929979945,
                    0.23431886566924914,
                    0.6888932247381434,
                    0.41577813618638476,
                    0.5640584393824187,
                    -0.5202810539815454,
                    -0.8878296375694472,
                    -0.02787055736949489,
                    -0.5354258701100818,
                    -0.9039954853213137,
                    -0.28235129223977345,
                    0.6245720221275549
                ],
                [
                    0.9122672116556736,
                    -0.460911092103992,
                    0.5254037883839996,
                    0.2517526088250026,
                    -0.11268216591581379,
                    0.24933076051453612,
                    0.8273356385805168,
                    -0.7333896615603773,
                    0.8438489726839521,
                    0.43642585901824454,
                    0.7270873047525693,
                    -0.35303046553365247,
                    0.6436138090840762,
                    -0.4947505259571327,
                    0.2407872577342388,
                    0.5428274560288824,
                    -0.8290438801475097,
                    -0.18427051562018454,
                    -0.5319181229813476,
                    0.42077890938046586,
                    0.06254035503168319,
                    -0.4101640767648832,
                    -0.6442117089615533,
                    -1.0583181120343514
                ],
                [
                    1.087062550797381,
                    0.9911498115037244,
                    0.39263152258162415,
                    -0.874882947929584,
                    0.05112582770138598,
                    0.5180388617416812,
                    0.21270918398087527,
                    0.8799070462339064,
                    0.5849686941671332,
                    0.27263827317988326,
                    -0.26673155768364815,
                    -0.3052049566476423,
                    -0.888372954340514,
                    0.7561817183860778,
                    -0.7092753642736277,
                    0.8997881085449649,
                    0.5774640903059193,
                    0.5569894718844468,
                    0.35752250863259794,
                    0.6157689332304421,
                    0.3821450428395498,
                    -0.5734498414846685,
                    -0.8710196541294213,
                    0.4183000145249276
                ],
                [
                    0.2283735786463819,
                    -1.0060932770641018,
                    0.809700852481287,
                    0.4140479218658368,
                    0.5074246109532847,
                    -0.2090155949616211,
                    0.2671700179803522,
                    -0.5375674159955773,
                    0.6612409829338853,
                    0.34378686122716046,
                    -0.08853892673553547,
                    0.25663722910821646,
                    -0.7258685923760839,
                    -0.5834005959112821,
                    -0.7550286318485047,
                    -0.37608471526696496,
                    0.790965535103289,
                    -0.45896878457313917,
                    -0.27929415324085716,
                    0.579874450802163,
                    -0.8523787433997297,
                    -0.5034484965835847,
                    -0.8470411178229152,
                    -0.6836417056366573
                ]
            ],
            "b": [
                -0.020864101384882216,
                0.03213278650059933,
                0.09823097403728517,
                -0.04778483292544888,
                0.030921246443159807,
                -0.07556240430022479,
                -0.03995261081852007,
                0.0871613145681977,
                0.053460419421999944,
                -0.08945462256709376,
                -0.04660328267572749,
                0.011938020295536518,
                0.00044066078037676044,
                -0.02262950361706187,
                -0.0071030861717944205,
                -0.11641976171065822,
                -0.031190336567911627,
                0.04334576682269198,
                0.10267538192003094,
                -0.056823401499851,
                -0.05601679635558843,
                -0.037547008276027916,
                0.004527137493171775,
                0.07238215076984009
            ]
        },
        {
            "w": [
                [
                    -0.09600434950803838,
                    -0.5479025894317576
                ],
                [
                    0.48148500406765177,
                    0.07565309473263228
                ],
                [
                    0.18971926089990981,
                    0.7418608307884386
                ],
                [
                    -0.46464923957635823,
                    -0.340140772829922
                ],
                [
                    0.35172373538936985,
                    0.10929864778343389
                ],
                [
                    -0.8189955611884998,
                    0.6079311920090419
                ],
                [
                    0.9605825277433085,
                    -0.5526018465783049
                ],
                [
                    -0.7778705811632439,
                    0.04433425136147597
                ],
                [
                    0.16011005950975676,
                    0.13799506796950411
                ],
                [
                    -0.8194601764884762,
                    0.6915302817348887
                ],
                [
                    -0.46320289895169964,
                    0.3180297765595709
                ],
                [
                    -0.825803726390585,
                    -0.07509841978105045
                ],
                [
                    -0.9631061633817343,
                    0.014165262602074069
                ],
                [
                    -1.2446479376308666,
                    0.21927651703079948
                ],
                [
                    -0.7682991641128066,
                    0.19984328850489355
                ],
                [
                    -0.1760049406753221,
                    0.6024615774734265
                ],
                [
                    0.3093432005400512,
                    0.05018979695465993
                ],
                [
                    0.8817084149171575,
                    -0.869086895923827
                ],
                [
                    -0.6664839206085355,
                    0.5752348089324131
                ],
                [
                    1.1383038531958933,
                    -0.5836687370540404
                ],
                [
                    0.1072840529500385,
                    0.9712424683950815
                ],
                [
                    -0.7074721775929522,
                    0.10220676118667871
                ],
                [
                    -0.6960885779395949,
                    0.6159675251452278
                ],
                [
                    -0.07709844974328878,
                    0.40455085345648994
                ]
            ],
            "b": [
                0.03563993311233016,
                0.0454289623219043
            ]
        }
    ],
    "lookbacks": {
        "sma": 250,
        "ema": 84,
        "rsi": 23,
        "macd_f": 18,
        "macd_s": 56,
        "adx": 15,
        "trix": 41,
        "slope": 45,
        "vol": 51,
        "atr": 43,
        "mfi": 50,
        "bb": 50
    },
    "lock_days": 9.797908405992633
}