{
    "version": "v7_deep_binary",
    "layers": [
        {
            "w": [
                [
                    -0.4786113084694748,
                    -0.2624334535490545,
                    0.03434363701506271,
                    -1.0909263395630855,
                    0.08282087381737824,
                    -0.9454849082175361,
                    0.11068558050942931,
                    0.2651005544232088,
                    -0.003322842582606775,
                    0.8598817947049869,
                    -0.07078012677101869,
                    0.8364354229166354,
                    -0.6473326473319085,
                    0.243026138521686,
                    0.31208974230145226,
                    1.079244819997719,
                    -0.5457071585792145,
                    -0.4989775100441636,
                    -0.10041353374474665,
                    -0.3123627095916831,
                    -0.574846820965101,
                    0.9803059600138718,
                    -0.3447863053360857,
                    -0.9040674143037807
                ],
                [
                    -0.5047302983097326,
                    0.9709017056409398,
                    0.42365249658654164,
                    -0.5280791190763109,
                    0.34367290930253147,
                    -0.5798469671511194,
                    -0.08903462947241145,
                    0.004387303920294891,
                    -0.46478002554191344,
                    0.9016403151889198,
                    0.26470064412992605,
                    -0.026631195596096717,
                    -0.7691037617322474,
                    0.513140262903112,
                    0.07856704623805885,
                    0.151312403745822,
                    -0.8961641414593492,
                    0.32537487615856475,
                    -0.7350754331431801,
                    -1.0282054677804782,
                    1.0063817660446446,
                    0.16059969755718914,
                    -0.5293637245990189,
                    0.4220325279577075
                ],
                [
                    -0.6042302158325619,
                    -0.461566098480399,
                    -0.5615200848910312,
                    0.7011024652870298,
                    0.19994270692908622,
                    0.6561339159740203,
                    0.3942874458874352,
                    0.250572654542167,
                    0.3892431877331535,
                    0.6297814857547346,
                    0.400477397577009,
                    0.16493390115095657,
                    0.33212414605568585,
                    0.3555711269742394,
                    -0.047101410562762645,
                    0.9675028311778974,
                    -0.08495402029052453,
                    0.7765464119509029,
                    -0.13194657913755628,
                    0.5001875942275336,
                    -0.41411890732076495,
                    0.5589497936437873,
                    -0.47463987214261927,
                    0.5134496343585307
                ],
                [
                    0.29822000645666674,
                    0.724751429809114,
                    1.0077829196824735,
                    -0.4663201364835952,
                    0.43144074598799464,
                    -0.12840001768040074,
                    1.0359100306976927,
                    0.47769469613408555,
                    -0.15334068206689513,
                    0.31337791890843436,
                    0.31721333579866495,
                    -0.3349047152602167,
                    -0.20659826289006536,
                    0.4893142295276131,
                    -0.14061307594129943,
                    -0.8231637902848484,
                    -0.06442003281432371,
                    1.1638321501680358,
                    -0.1120648858743223,
                    -0.07073743902991056,
                    -1.002506930481646,
                    0.05015802036470602,
                    -0.15816633572172403,
                    -0.837639626849099
                ],
                [
                    0.8643343582159468,
                    -0.7591184906939179,
                    -0.6617965113029183,
                    -0.9307031863209627,
                    0.43365207304787323,
                    0.3337064296265252,
                    0.39177351701254937,
                    0.2625954750548445,
                    -0.4127198275834155,
                    -0.24711947469344214,
                    0.8204532757633264,
                    0.6574361210790859,
                    -0.5511064814308482,
                    -0.09776118111638517,
                    0.6919370347232481,
                    -0.08633906076747809,
                    0.6395423677304916,
                    -0.571819370072739,
                    0.8303917675700463,
                    0.09781225522210996,
                    0.8985017119595445,
                    0.7811131905791079,
                    -0.5772960763864242,
                    0.06321213072617378
                ],
                [
                    0.8148745303269902,
                    0.8692640273129657,
                    -0.9293437810289868,
                    0.6735092132267714,
                    0.12570062514848435,
                    0.6765267900432335,
                    -0.6782521809949122,
                    -0.484558098847218,
                    0.8160612104438565,
                    -0.7072087634078869,
                    -0.7137532431628113,
                    0.19060623078618347,
                    -0.238291789258306,
                    0.12773090558533348,
                    1.106054973639482,
                    0.19069654925176321,
                    0.3674140356034465,
                    1.0442740051056412,
                    0.4420828460498237,
                    0.5572331222113764,
                    0.2835198896087157,
                    -0.7117384591835729,
                    0.9973954195777051,
                    0.4979421079187838
                ],
                [
                    -1.0368924039579095,
                    0.30429725720496503,
                    -0.39224995111869104,
                    0.8209970041455567,
                    -0.9978663984740344,
                    -0.2088207093259282,
                    -0.5447343962660359,
                    -0.11444231138468686,
                    -0.4724715823941289,
                    -0.017294315649875158,
                    0.29312655437133184,
                    0.20441889630554624,
                    0.9323040001340152,
                    0.09337563521039423,
                    -0.5205508826464573,
                    0.6154780401713132,
                    -0.045971114401607505,
                    0.48870847011349633,
                    0.5527594027278281,
                    -0.16998373965773725,
                    -0.14276182846818297,
                    -0.6800070594738639,
                    -0.49772933410596254,
                    -1.1044929179685854
                ],
                [
                    -0.7606457680220443,
                    -0.38101716313154815,
                    -0.43374134786374013,
                    -0.330499493649237,
                    0.27503613709724306,
                    0.005237727885512647,
                    -0.20739626078581375,
                    0.20056330097418518,
                    0.11696473237530773,
                    0.3236619102611439,
                    1.4333545891822022,
                    0.46355096869727763,
                    0.7779620403927765,
                    0.7778214977542164,
                    0.3735025846568091,
                    1.0938336932517339,
                    0.722908994836571,
                    0.8832729856656824,
                    -0.6787490643091894,
                    -0.757789305345345,
                    0.35803384342771316,
                    0.4402153881928947,
                    -0.5981368211508195,
                    -0.17329062520831742
                ],
                [
                    -0.17718789949268426,
                    0.23552486664631855,
                    0.9310926583994511,
                    0.09130631857761372,
                    -0.1771601306016533,
                    1.1512493608849006,
                    -0.5306646428638706,
                    -0.5223349855485242,
                    -0.8294766250101255,
                    -0.3196384895372053,
                    0.9754385914480106,
                    -0.17547755500500126,
                    0.6332905263439831,
                    -0.9190517644646008,
                    -0.6497642103474562,
                    0.20615864872026252,
                    -0.5722369627547308,
                    -0.9270915205404794,
                    -0.5534742567551092,
                    -0.10328847070884296,
                    -0.5680180233451261,
                    0.352478202053193,
                    0.4751168833068323,
                    -0.49632208307660264
                ],
                [
                    0.4923293442048262,
                    -0.18647673204136858,
                    -0.17341724906043876,
                    -0.5963642256739974,
                    -0.046810703530950445,
                    0.53241694126894,
                    0.26618175010991457,
                    0.6366975673347952,
                    0.903215997865243,
                    -0.3877854004912844,
                    -0.25849623368594543,
                    0.8322969136727729,
                    0.7288524838757017,
                    0.6817197930661776,
                    0.05578795527854133,
                    0.9840944795582021,
                    -0.8521454545840419,
                    -0.06167561126078916,
                    -0.8725191820045611,
                    0.4608487004503097,
                    0.08808845764871454,
                    0.8553283551173972,
                    -0.5332969160752439,
                    -0.25954701286875603
                ],
                [
                    0.15005401238254662,
                    0.7707510432747559,
                    -0.48682898758982074,
                    0.3677256273066908,
                    0.2344417984616326,
                    0.12329197033513062,
                    0.32186625765138327,
                    0.5643315798264551,
                    -0.07773425740097277,
                    -1.0842425620188592,
                    0.08825304203758971,
                    -0.7346398092975239,
                    -1.149969435946568,
                    0.7721369417175757,
                    0.8741023112144524,
                    0.8086261957833459,
                    -0.9768176711916758,
                    -0.19055946092405893,
                    -0.8020635955834511,
                    -0.53379956255321,
                    -0.7792415420131517,
                    0.5001908741040693,
                    0.49812375204516124,
                    0.568365357833289
                ],
                [
                    0.13808581039153422,
                    -0.721962089203588,
                    0.01694743447432302,
                    0.9548796649290381,
                    0.41080393615466093,
                    0.5859886354232143,
                    0.3258494101882187,
                    0.5461872525007203,
                    -1.246559656353718,
                    -0.6692611927198996,
                    0.8428110772645501,
                    0.8140825250065034,
                    0.8299313216686717,
                    -0.6030544066533412,
                    -0.3971284644143162,
                    0.2921807766605823,
                    -0.5399665000508502,
                    -1.0917969769651445,
                    0.3477736515799088,
                    0.9520152260223649,
                    -0.31264357175283963,
                    -0.20396508646114145,
                    0.116562351458362,
                    -0.4273661820884421
                ],
                [
                    -0.07694870479430044,
                    0.9999810948307063,
                    0.938242543793147,
                    -0.3430717869249308,
                    0.15501585703557294,
                    0.18889840362823893,
                    0.5905034647146937,
                    -0.727607232474363,
                    -0.2131409253505378,
                    -0.6727820531840744,
                    0.07571059139849345,
                    -0.2309987578732564,
                    0.6258147109553319,
                    -1.0612283894216172,
                    -0.861747766318502,
                    0.6143935738776887,
                    0.4463140998283042,
                    0.8635909287340937,
                    -0.6068092667334793,
                    0.22922097357901933,
                    1.1635706145404217,
                    -0.31697985884734964,
                    -0.9799116311009157,
                    0.05562723633812892
                ]
            ],
            "b": [
                0.03155316084263933,
                -0.005292243454285781,
                0.17627255794072189,
                0.04488533430850408,
                0.14936631151842086,
                0.06104420838206564,
                -0.00956801254692765,
                -0.04635216649611959,
                -0.06709420208326447,
                -0.1075726049638083,
                -0.22925733080712607,
                -0.10131437238439191,
                0.11963395333270825,
                0.011999899316968566,
                0.11696824807624917,
                -0.182446747026519,
                0.09969679525354942,
                -0.06096911388268559,
                -0.14722015762686855,
                0.1327789548044198,
                -0.014787959620440948,
                0.17250873122453914,
                -0.07175569781998661,
                0.13050141173310095
            ]
        },
        {
            "w": [
                [
                    -0.9763817249629965,
                    -0.8728936131347098
                ],
                [
                    0.8346519652415819,
                    0.01472125213257404
                ],
                [
                    0.4308375397474187,
                    0.6922883777444391
                ],
                [
                    -0.5703718128761381,
                    0.17367500197107513
                ],
                [
                    -0.8216060529538081,
                    0.2851177760632292
                ],
                [
                    0.7730879869701793,
                    -1.4063259400014345
                ],
                [
                    0.05642344354651428,
                    -0.13199499678569004
                ],
                [
                    0.2105496877732234,
                    0.8515338602168936
                ],
                [
                    0.009083135056835345,
                    -0.064517225717208
                ],
                [
                    -0.08819028979007248,
                    -0.49235160093703734
                ],
                [
                    -0.2946388916002635,
                    0.6537344371996784
                ],
                [
                    0.6607251692369442,
                    1.1132693906669207
                ],
                [
                    -0.27354524533153746,
                    -0.8622023617378052
                ],
                [
                    -0.8582151441124625,
                    -0.27473223526136004
                ],
                [
                    0.16154065275938645,
                    0.5712784795888536
                ],
                [
                    -0.9259928629835971,
                    -0.5992811605388453
                ],
                [
                    0.5406470477076125,
                    0.7417366578498437
                ],
                [
                    0.14984656878874592,
                    0.5595895126957907
                ],
                [
                    0.3062348500706223,
                    0.2430886879188226
                ],
                [
                    -0.5819670991657876,
                    0.8974664793946848
                ],
                [
                    -0.34601998955303875,
                    0.5673242388415403
                ],
                [
                    0.181056046203597,
                    0.050065477402194386
                ],
                [
                    0.19364803814975612,
                    -0.8814779124960218
                ],
                [
                    -0.37497691117567183,
                    0.5351238496245093
                ]
            ],
            "b": [
                0.029067205124086403,
                -0.011290400208311003
            ]
        }
    ],
    "lookbacks": {
        "sma": 231,
        "ema": 182,
        "rsi": 49,
        "macd_f": 30,
        "macd_s": 27,
        "adx": 19,
        "trix": 34,
        "slope": 5,
        "vol": 46,
        "atr": 5,
        "mfi": 55,
        "bb": 17
    },
    "lock_days": 5.582820605117155
}