{
    "version": "v7_deep_binary",
    "layers": [
        {
            "w": [
                [
                    -0.1646640484412903,
                    -0.45578077820430635,
                    -0.0788352980369417,
                    -0.7846620065198103,
                    0.2551555067161968,
                    -0.7934883575732996,
                    0.05116917974262025,
                    0.3013485315287231,
                    -0.01894307328484491,
                    0.7974257518470955,
                    0.13349879455572036,
                    0.7828029232912055,
                    -0.7427114521910426,
                    -0.2049367195839415,
                    0.4035917494169986,
                    0.9763875552802286,
                    -0.43254631038080615,
                    -0.24788621834837032,
                    0.027281347191695816,
                    -0.06784302743858041,
                    -0.26681000080781947,
                    0.35488152224894715,
                    -0.4533651590501251,
                    -0.7627286185215268
                ],
                [
                    -0.2101160020581186,
                    1.0497161535506923,
                    0.1812080835050062,
                    -0.415681512272621,
                    0.46537030691198905,
                    -0.595864333900806,
                    0.06318083779701912,
                    -0.23390711503511233,
                    -0.5260209956956139,
                    0.892564399261268,
                    0.3852850085542899,
                    0.3538706448731733,
                    -0.8790464648048923,
                    0.7906416480314014,
                    0.2642645814411699,
                    0.4103588415745003,
                    -0.8725562562552369,
                    0.1138236380493303,
                    -0.7395387712234512,
                    -0.6964213342306566,
                    0.9176694251526711,
                    -0.0849113406219444,
                    -0.4840148820855481,
                    0.5695078469649658
                ],
                [
                    -0.5913958653166194,
                    -0.6268867275461297,
                    -0.5077401920398322,
                    0.5781044763292787,
                    0.3582258059950735,
                    0.8304949816170006,
                    0.40343129905347397,
                    0.32166255255586584,
                    0.22599380871236172,
                    0.4251763135901671,
                    0.3935843060451689,
                    -0.05436839799681146,
                    -0.01674530603309277,
                    0.3263580023435473,
                    -0.5148970137994577,
                    1.0646505838809934,
                    -0.036981121063817464,
                    0.7129768212584152,
                    -0.17173164032857285,
                    0.5835708577302956,
                    -0.3447684701501069,
                    0.48735093745609004,
                    -0.19200215352881012,
                    0.6702274560366615
                ],
                [
                    0.1480701713976306,
                    0.3542883918602598,
                    0.8283837616400763,
                    -0.6795018091120462,
                    0.3101777765775399,
                    -0.09794432898716629,
                    1.0104025904860545,
                    0.3614292229046357,
                    -0.15929852315795193,
                    0.0985536552173313,
                    0.36333739648962665,
                    -0.3812266165472135,
                    0.003439253395944787,
                    0.6729894285447636,
                    0.13182659401663863,
                    -0.7424409537708159,
                    -0.2501843166660464,
                    1.0117042467373738,
                    -0.47363728283573303,
                    -0.03143625549662905,
                    -1.1503675270081395,
                    0.11643715313807199,
                    0.03957915177233132,
                    -1.1105829956519506
                ],
                [
                    1.174037749148846,
                    -0.7074668867848355,
                    -0.8092500810745986,
                    -0.9913567361326509,
                    0.6045333734336111,
                    0.46573066435646915,
                    0.3366836139243277,
                    0.3638107518727369,
                    -0.6826207456377053,
                    -0.36850792071532534,
                    0.606403171484267,
                    1.030761091464406,
                    -0.36927926899713337,
                    -0.06591872717519595,
                    0.6671240101598948,
                    -0.12852058544933911,
                    0.42495098083215255,
                    -0.5758746377617607,
                    0.9394391966718837,
                    0.1995075855840346,
                    0.9017806859844117,
                    0.7922045113146085,
                    -0.7538451666263543,
                    0.05982638762242294
                ],
                [
                    0.6623964837474832,
                    0.9157690912022824,
                    -0.7623631445885687,
                    0.6170864683536302,
                    0.0886792507604684,
                    0.596914652867999,
                    -0.645186302167556,
                    -0.4978121254269743,
                    0.8601089561573548,
                    -0.46150723095768953,
                    -0.7534236602293064,
                    0.14538118160352403,
                    -0.08534800423099859,
                    -0.11287913071680652,
                    0.7771721893692417,
                    0.18461841341107257,
                    0.19238274092065152,
                    0.8852174898243885,
                    0.8283657901471848,
                    0.49034681826832077,
                    0.42925700867591043,
                    -0.5950571537092623,
                    0.5130508966765798,
                    0.5697299709860084
                ],
                [
                    -1.0239377463461972,
                    0.12263209840777411,
                    -0.1832265182014528,
                    0.6196134581343605,
                    -0.10553718412275585,
                    0.07381700397451829,
                    -0.3914336757736813,
                    -0.41672616485727043,
                    -0.5836625428322295,
                    0.44306863267815677,
                    0.2508630202218714,
                    0.15504729388281627,
                    0.6897756226053943,
                    0.18460394564596633,
                    -0.5966666231626713,
                    0.3707513476621309,
                    -0.17201216900542343,
                    0.4555436793493164,
                    0.4882958256453877,
                    0.018209595707495377,
                    -0.22550372143983893,
                    -1.093402579607684,
                    -0.24234051484549263,
                    -1.2535164290066572
                ],
                [
                    -0.8435705229531392,
                    -0.30596684802440616,
                    -0.5983121104522322,
                    -0.6983467660032084,
                    0.3734045878578709,
                    0.31231941951829667,
                    -0.569387734278618,
                    0.1656325978687917,
                    0.12240915987919435,
                    0.29363813837797,
                    1.0905456929549904,
                    0.2638955968182395,
                    0.842371623978149,
                    0.741409957277935,
                    0.3178540512484879,
                    1.1181609762783453,
                    0.6872842112491986,
                    0.6521523907548925,
                    -0.37346904169552486,
                    -0.937334504070768,
                    0.3082715615300746,
                    0.6500838205248093,
                    -1.0217694779475328,
                    -0.44692576011615737
                ],
                [
                    -0.2933287759246171,
                    0.6817478999663455,
                    0.687113282565336,
                    -0.21156976613221062,
                    -0.2647219107023386,
                    1.0421389106345331,
                    -0.847943995382275,
                    -0.6680957412658718,
                    -0.881428650322322,
                    -0.22042737229613854,
                    1.0648808602762843,
                    -0.3911969630096185,
                    0.6075556055140292,
                    -0.6266904438287597,
                    -0.19750450525710336,
                    0.11132519359639755,
                    -0.32762725665059733,
                    -0.8174693328309992,
                    -0.4065997776922645,
                    0.4521493484672688,
                    -0.7047119025103454,
                    0.20891416693729314,
                    0.3089857354303488,
                    -0.11716618161021136
                ],
                [
                    0.4478716779746763,
                    -0.29865948153265576,
                    -0.700171653933139,
                    -0.2658134277430778,
                    -0.2534329707057262,
                    0.48055898527632945,
                    0.584467484284987,
                    0.47654636546334134,
                    1.144854777764952,
                    -0.5938473748540428,
                    -0.27267740119415684,
                    0.7779802743987879,
                    0.8600046062773896,
                    0.6951856225302583,
                    0.0060532153844169,
                    0.7748589287209651,
                    -0.7948756743310234,
                    -0.08635774871393717,
                    -0.8418641428794796,
                    0.5133631122012507,
                    0.12767435886290285,
                    0.8301863945427285,
                    -0.3875924098708607,
                    -0.31584267642779357
                ],
                [
                    0.2651392679111112,
                    0.6336056580896592,
                    -0.29057313446355637,
                    0.49145907652637,
                    0.6877645706970922,
                    0.05020446517216584,
                    0.06140106203206015,
                    0.37126928825025235,
                    0.08855544360336043,
                    -0.6753972234565597,
                    0.49479153759012623,
                    -0.775847210469256,
                    -0.9420375312929452,
                    0.8799826786042081,
                    0.691035559173807,
                    0.9526557592068104,
                    -0.9554367730070087,
                    -0.12676177838077052,
                    -0.4684646879519396,
                    -0.3624458495214894,
                    -0.7952913137506882,
                    0.5909584142748726,
                    0.8302627004454205,
                    0.3719824020176413
                ],
                [
                    0.19147411879911855,
                    -0.8368766235862448,
                    -0.30106965920424933,
                    0.9487653636599588,
                    0.2775219661571525,
                    0.9174436457592112,
                    0.2634221574770529,
                    0.5298976356741616,
                    -0.8672773153595205,
                    -0.5900405539764088,
                    0.7587397889145048,
                    0.9293548937421785,
                    0.635173104204024,
                    -0.5229308747336646,
                    -0.13863344413426756,
                    0.4370164985622264,
                    -0.599848680990116,
                    -0.8984231849346056,
                    0.3761157114722451,
                    0.985341417919743,
                    0.0504467667222305,
                    -0.5169007583635349,
                    0.0674708623933961,
                    -0.20229472745370514
                ],
                [
                    -0.11841972565281274,
                    0.8495297169311945,
                    0.6463973267285729,
                    -0.2529797899188967,
                    0.324130929383032,
                    0.9134211430770501,
                    0.5886110185497088,
                    -0.8339174700188724,
                    -0.24176798415933398,
                    -0.580370483483419,
                    -0.21693805806691352,
                    -0.017149190139136516,
                    0.36009981959440784,
                    -0.8028454384043794,
                    -0.5081319055324073,
                    0.6500746337358221,
                    0.6533609434846713,
                    1.0180438385933022,
                    -0.5235172536988105,
                    0.22797526846862226,
                    0.7752925730841668,
                    -0.3763378436999169,
                    -0.7243636148052506,
                    -0.040790560009395335
                ]
            ],
            "b": [
                0.003906635364060891,
                -0.0022024559407583452,
                0.18751705688328074,
                0.04312398961220027,
                0.11263131166733638,
                -0.08827123795165524,
                -0.008060252438574556,
                -0.005121505899405871,
                -0.012761787524757822,
                -0.05330063287042165,
                -0.1486401117673075,
                -0.03074101612510786,
                0.10537040264907242,
                -0.06954760621027184,
                0.05487485563627692,
                -0.006246529836272271,
                0.13974671857693582,
                0.08191175716202488,
                -0.17868446994187395,
                0.05693119980982039,
                -0.05586348381515432,
                0.0516193538071234,
                -0.08748343355636179,
                0.08956681073230466
            ]
        },
        {
            "w": [
                [
                    -1.0495618601528656,
                    -0.6078556121316673
                ],
                [
                    0.8503859817704171,
                    0.2219022939704503
                ],
                [
                    0.34424089906958005,
                    0.8409961090935855
                ],
                [
                    -0.6457474134546972,
                    0.1176906683299684
                ],
                [
                    -0.7162954913333202,
                    0.49066917066660337
                ],
                [
                    0.8570996505724423,
                    -0.974456451685661
                ],
                [
                    0.041307148922079644,
                    -0.22669414978500319
                ],
                [
                    0.38235160902474824,
                    0.5842823834432591
                ],
                [
                    -0.15757438158760126,
                    -0.33481522964291976
                ],
                [
                    -0.20988513257479147,
                    -0.3363507033261727
                ],
                [
                    -0.2425776288446329,
                    0.477060273023573
                ],
                [
                    -0.03458186649863803,
                    0.3905176438080377
                ],
                [
                    -0.3213840131262417,
                    -0.6939922815986822
                ],
                [
                    -0.7413007775376641,
                    -0.4073282188068331
                ],
                [
                    0.0352079801458107,
                    0.8378450122308237
                ],
                [
                    -0.991202484170197,
                    -0.3945181636982018
                ],
                [
                    0.6152738776138206,
                    0.938588132959089
                ],
                [
                    0.16785920367714025,
                    0.5153693918413206
                ],
                [
                    0.6207043794220287,
                    0.45137010252281945
                ],
                [
                    -1.0317083872497161,
                    0.9215636903086772
                ],
                [
                    -0.28990907054312487,
                    0.5323699785883426
                ],
                [
                    0.34337360026038355,
                    0.07770657563529162
                ],
                [
                    0.14646258196587167,
                    -0.5363664337231442
                ],
                [
                    -0.42220511611740247,
                    0.773869989764419
                ]
            ],
            "b": [
                0.011647468799810493,
                -0.07295299757662446
            ]
        }
    ],
    "lookbacks": {
        "sma": 231,
        "ema": 178,
        "rsi": 27,
        "macd_f": 17,
        "macd_s": 15,
        "adx": 7,
        "trix": 45,
        "slope": 6,
        "vol": 53,
        "atr": 13,
        "mfi": 22,
        "bb": 11
    },
    "lock_days": 7.16884934531104
}