{
    "version": 9.0,
    "layers": [
        {
            "w": [
                [
                    -0.8694280852782964,
                    0.2972623815086997,
                    -0.5444512454542384,
                    0.05188951510039047,
                    0.5607476828920163,
                    1.1604896947878636,
                    0.43352455688266234,
                    1.0298186923592276,
                    1.7135535506365818,
                    -0.7038404368305059,
                    -0.3490436072583193,
                    -0.5534176176494179,
                    -1.1467678717425,
                    -0.721138979572288,
                    0.7513840831986114,
                    -0.6468061240420829,
                    -1.0095343342421874,
                    0.9085768776793961,
                    -0.33861500221312746,
                    0.2188326494956525,
                    0.8460026594587222,
                    -0.21422763326472116,
                    -0.33787882185514273,
                    -0.2421149122376099
                ],
                [
                    -0.9922951969198007,
                    0.8087713595997656,
                    0.09642908365468902,
                    -0.3150343825452164,
                    0.7453919717451036,
                    -0.5092417422658374,
                    0.14644487073564427,
                    0.8250407079500873,
                    0.877159372485483,
                    -0.7640946969758102,
                    0.15091916135461841,
                    0.6672270768416729,
                    0.10674632746427448,
                    1.0663340476065148,
                    -0.2667077235725157,
                    0.13026402622500177,
                    -0.22020123072757647,
                    1.3544330067437307,
                    1.3994831278679274,
                    0.5893640759432094,
                    0.41489206252907307,
                    0.14691139760363275,
                    0.18211583697400513,
                    1.7364730314612646
                ],
                [
                    -0.19809998744870624,
                    -0.028682914192172476,
                    1.568252552434799,
                    0.3681736730773774,
                    0.3731752799909213,
                    0.5083149954614176,
                    -0.5349075899954803,
                    1.109325763964667,
                    -0.4674800155466861,
                    0.5184853993165002,
                    -0.8106768319519287,
                    0.3778421729090656,
                    -1.1496448264779444,
                    -0.17856829840421473,
                    0.7381313118248054,
                    -0.5147311947827942,
                    0.24977595644031544,
                    -1.2210689082699542,
                    1.048644540180151,
                    -0.31017093449893,
                    -0.7809043176784248,
                    1.3705904253105932,
                    0.6712649692767904,
                    -0.6777735715108898
                ],
                [
                    0.08195693557891133,
                    0.17698177487300112,
                    -1.1158238200211716,
                    -0.4146016949707945,
                    -0.5981160974659093,
                    -1.0400483969802048,
                    -0.17728124159151937,
                    -0.9348434377379043,
                    -1.379645646405233,
                    -0.047030402389617594,
                    -0.24534022708525072,
                    0.7385404723427209,
                    0.14347652243146752,
                    -0.3471447143136448,
                    0.13673555369972307,
                    -0.19837151511177403,
                    0.23577626263084767,
                    1.1511173913718895,
                    -2.0330637601434027,
                    -1.1460655337526688,
                    -0.8722593330638849,
                    -0.5296311954678109,
                    1.898183857279514,
                    0.005695810956573847
                ],
                [
                    -0.14048296345443007,
                    0.7140206782917917,
                    0.04754981730204856,
                    -0.2667513371251518,
                    0.0994713293143156,
                    -0.8600991079915451,
                    0.6771681721007449,
                    0.10996966660596587,
                    -0.3297732486480474,
                    1.242674010435702,
                    0.6055865887038686,
                    0.8362765783457778,
                    -0.152505138465158,
                    -1.0884382024598929,
                    -1.378000943998704,
                    0.4296656558005141,
                    -1.5189492913468805,
                    -0.3974877669400388,
                    0.7480769105964733,
                    0.6349956674472534,
                    -0.805692631330223,
                    0.07272661093646199,
                    -1.5803743213216999,
                    -0.44219457077511826
                ],
                [
                    0.41402700572041085,
                    0.7363055711838903,
                    0.9712886271472403,
                    0.3784828418216176,
                    1.5145605712290688,
                    0.3632027093230725,
                    1.0833486148515392,
                    1.0921359821666712,
                    -0.02093156111165738,
                    1.8748291775852495,
                    -0.006444290261732321,
                    -0.5811392752630438,
                    -0.7338260582095006,
                    1.0686179132326983,
                    -0.39599376901826144,
                    0.6674791939865476,
                    -0.974802638117186,
                    -0.06756027708430226,
                    -0.21206892677441436,
                    -0.2802493798174195,
                    -1.2830616352604727,
                    0.8305589922456479,
                    -1.0096375775059945,
                    -0.9352372131278806
                ],
                [
                    -1.4796835511018307,
                    0.012182869375324132,
                    0.6701990581774504,
                    -0.7513494462674187,
                    0.004488228101446362,
                    0.17012478576226975,
                    -0.8356983155681021,
                    -0.6831920855957547,
                    0.5543916915311705,
                    -0.24938492556763137,
                    -0.3837418171835698,
                    -0.9559468733129727,
                    -0.10202635814160296,
                    0.006738863085147326,
                    0.31669915901450313,
                    0.4095611247936722,
                    -1.2544944198577161,
                    -0.02411196807126577,
                    -0.45706887657632767,
                    1.8610174399774946,
                    0.8094197013068444,
                    -0.4460211898981238,
                    -0.8726632889811113,
                    -0.1606321655440489
                ],
                [
                    -0.47505885653359725,
                    0.5969483024241089,
                    1.0314683075327362,
                    1.3570897312111105,
                    -0.7169577768508701,
                    -0.6075745460129389,
                    1.0050346507554286,
                    -0.22107576890411057,
                    1.0203286242296976,
                    1.5194174585641713,
                    -0.29081578420828913,
                    -0.3528336152341517,
                    -0.7346091010864655,
                    -1.4550560516538753,
                    -0.07555793981577633,
                    0.912491548088749,
                    -0.11143361533654994,
                    0.6400268257269384,
                    -0.5083961952541204,
                    1.10820089323923,
                    0.26507732352476776,
                    1.3404717307780254,
                    -0.0618001998049813,
                    -1.3443995825520807
                ],
                [
                    -0.7393343317272156,
                    -1.5151603030577403,
                    0.4568504058343398,
                    0.7867106407448049,
                    0.0555851336417415,
                    1.402595265150988,
                    -0.612621931332999,
                    0.10339047511314443,
                    -1.0923826153272533,
                    -0.4884258262260692,
                    -0.6052943073984243,
                    -0.9298886863141775,
                    -0.07798153524345676,
                    0.6289251030728567,
                    -1.0736833176567195,
                    -0.4945727459865004,
                    0.34311227280551565,
                    0.1277235056540897,
                    0.13416976386735663,
                    0.25114167472190047,
                    -0.024735139638312056,
                    0.22972139828601504,
                    0.6186008531726217,
                    -0.6460364835634433
                ],
                [
                    0.3207213469096514,
                    -0.9846536734980951,
                    -0.5792425434127557,
                    -0.2919487524340074,
                    0.6594788861667196,
                    -0.8838013304780477,
                    -1.2392155899705626,
                    -0.7159087572899409,
                    -0.40960760424254067,
                    -0.1546534836883149,
                    -0.4670683736143558,
                    0.12426298213343599,
                    0.8773808732715358,
                    -0.4448562475784459,
                    -1.9468400513099784,
                    1.0990300537372015,
                    -0.008421562042972036,
                    0.5089079687208743,
                    0.1577521008417771,
                    -1.4081262627153537,
                    0.19901517103114882,
                    -0.49298194416409863,
                    1.3916875830362838,
                    -0.11012757686178812
                ],
                [
                    -0.28873273167925423,
                    -1.255501187418392,
                    -0.36393674778452556,
                    0.1975588155526213,
                    -0.17158515832273452,
                    0.08789914281652428,
                    0.5462107162262048,
                    0.4582258708993042,
                    0.26816105656965933,
                    -1.442277625902988,
                    0.027572280870085064,
                    -1.2133060554161819,
                    -0.5385132696643142,
                    -0.2575286661613515,
                    -0.17112225393830555,
                    -0.7321476948193859,
                    1.094379171327015,
                    -0.6114650755816797,
                    0.6944525192225275,
                    1.200132254345457,
                    0.45512602132985946,
                    -1.7511152328258486,
                    -1.031187465791893,
                    0.8217351160040774
                ],
                [
                    -1.3827492950363904,
                    -0.23885912915761606,
                    -1.1038910571024896,
                    1.9450517018589848,
                    -0.28484279504631776,
                    -0.934006078010706,
                    0.8780637561055462,
                    -0.5601148661005074,
                    0.16912778273493978,
                    1.2871851413952893,
                    0.9744012850877409,
                    -1.1085789655862426,
                    0.509510524356153,
                    0.8995308853891869,
                    -0.980815470104978,
                    0.9872259560551692,
                    0.05985551296042475,
                    -0.8300476693406657,
                    -0.31769655072444447,
                    0.6637991049502131,
                    -0.9622098415892146,
                    -1.6993750238386742,
                    -0.14770955469665212,
                    -0.6056705413269082
                ],
                [
                    0.9713213426217195,
                    -1.5219425031461167,
                    1.5317343896890767,
                    -0.3662597642689295,
                    0.5612862644409042,
                    -0.13350891970795598,
                    0.44238932194738334,
                    0.14937228504920158,
                    -0.05865575106179341,
                    0.15558188415485238,
                    -1.0667372653522758,
                    -0.6167343905974261,
                    -0.12927580536556676,
                    0.35898002793540024,
                    -0.10020159410935704,
                    1.4267522644611146,
                    -1.8313332680129357,
                    0.44270599911741054,
                    -1.114382902237415,
                    -2.1995363471953397,
                    -1.0656969804123788,
                    -0.21956994439517996,
                    0.3259334407251304,
                    0.099028900312234
                ]
            ],
            "b": [
                -0.015355717169060638,
                0.10705125839098048,
                -0.15768712055247597,
                -0.2458604760521302,
                -0.03624266270537191,
                -0.043131574622002664,
                0.11115186259446723,
                -0.1074323302226214,
                -0.1289954988487343,
                -0.043253885937096226,
                -0.07068174395496327,
                -0.5818326578259339,
                0.04203756884026896,
                0.4517466544555538,
                0.09443121510967901,
                -0.006603400301492923,
                0.30277571533030456,
                0.04234464196056216,
                -0.28292959785955263,
                -0.31355264906246816,
                0.08058582999234151,
                0.36205322986044275,
                -0.23297478830535628,
                -0.06480443123454402
            ]
        },
        {
            "w": [
                [
                    -2.3350975672524994,
                    -0.05449163471621689,
                    -0.8662251655100001,
                    2.2444606426382476
                ],
                [
                    2.5376378420490533,
                    0.18883233838429664,
                    -1.171211450204388,
                    1.2803653276927736
                ],
                [
                    1.296077078587099,
                    1.5005720780695613,
                    -0.9401235633957791,
                    1.5696294498711616
                ],
                [
                    2.454676644325579,
                    -1.2806346254738774,
                    -1.9499562005749511,
                    0.21093500483508074
                ],
                [
                    0.16223672356387148,
                    1.847542512652145,
                    0.9575817024487255,
                    -1.337015390562392
                ],
                [
                    -0.8820524863283837,
                    2.970967491834161,
                    -1.4513982123850806,
                    -1.8237295588585352
                ],
                [
                    -0.089771467661243,
                    -1.6914919900692231,
                    -0.19187697073406174,
                    2.002850213726621
                ],
                [
                    1.9874584804374096,
                    2.910827617153328,
                    2.3191295609494014,
                    1.8139722393146067
                ],
                [
                    2.2350752904631546,
                    1.792472106109551,
                    0.1654653082308394,
                    1.2603744426349122
                ],
                [
                    1.4940627933498185,
                    -1.896390026930798,
                    -1.3075728605894616,
                    -2.472858836705476
                ],
                [
                    0.9555358816580644,
                    1.9503941428699165,
                    1.3873161767244198,
                    1.3095756492321722
                ],
                [
                    -0.1686614660251792,
                    -1.4999018020619344,
                    -1.8394841005663076,
                    -0.975322616297735
                ],
                [
                    -0.4071675222001221,
                    -2.4177129909609167,
                    2.0816385937026354,
                    2.0420200384543317
                ],
                [
                    0.9911548501533305,
                    -2.5586674592854743,
                    0.05168327886964534,
                    2.900848104932779
                ],
                [
                    -1.7251938216198566,
                    -2.483348614843834,
                    2.411562008398123,
                    -1.2102651609043833
                ],
                [
                    1.1653136257063583,
                    0.18621794944571646,
                    0.6541866255808968,
                    1.8205162781203041
                ],
                [
                    2.658299142641601,
                    -1.6356669849229672,
                    -0.8257603125416146,
                    -2.516648502873821
                ],
                [
                    -2.1886002115323437,
                    -0.06111815708764189,
                    2.2380144481295785,
                    0.7195505851398258
                ],
                [
                    -2.2015380853422704,
                    0.3695481862790864,
                    2.6882470088171555,
                    -2.448076214934979
                ],
                [
                    0.06486788095301112,
                    -0.8079950517335581,
                    1.2122616010686338,
                    2.0958133292427594
                ],
                [
                    -1.3406362114128627,
                    -2.123866678184534,
                    0.9538547794479877,
                    -0.5230135299942692
                ],
                [
                    -0.21716890358998883,
                    -2.812980905852698,
                    0.13173493198326114,
                    0.432399552989706
                ],
                [
                    1.741336545244386,
                    0.250130109187198,
                    -1.296644432960166,
                    1.4145288779156546
                ],
                [
                    -0.4099702561204324,
                    -1.4124792121618504,
                    0.9410183631913425,
                    1.6048751024376293
                ]
            ],
            "b": [
                0.19869797583165694,
                0.20105733459100658,
                0.01692155662973239,
                -0.049115865726877914
            ]
        }
    ],
    "lookbacks": {
        "sma": 44,
        "ema": 136,
        "rsi": 48,
        "macd_f": 15,
        "macd_s": 46,
        "adx": 41,
        "trix": 39,
        "slope": 21,
        "vol": 38,
        "atr": 34,
        "mfi": 25,
        "bb": 60
    },
    "hysteresis": 0.2880664047982688,
    "lock_days": 1.9548269819814004,
    "smoothing": 0.5990105932291171
}