{
    "version": "v9_confidence",
    "layers": [
        {
            "w": [
                [
                    -0.9235140756327749,
                    0.4175576679110078,
                    -0.47915724557232753,
                    -0.04055509478538864,
                    0.583864866498441,
                    1.0412143470871498,
                    0.4668440575652242,
                    1.0632960731599783,
                    1.784119854640724,
                    -0.8083793562315598,
                    -0.42654327618502963,
                    -0.6124216100488533,
                    -1.2173273539118117,
                    -0.7310906887683234,
                    0.840289466156145,
                    -0.69362173595153,
                    -0.9799219551206156,
                    0.9999223400316367,
                    -0.2862505926042484,
                    0.18436797779319877,
                    0.9463124801706434,
                    -0.345273268799447,
                    -0.24354784195573143,
                    -0.2418141963472606
                ],
                [
                    -0.993962497075971,
                    0.810872745217476,
                    0.017821260106389982,
                    -0.30540189672192664,
                    0.9032577264695992,
                    -0.5238712416460674,
                    0.12087279674899631,
                    1.020579245234219,
                    0.8739104893021545,
                    -0.9166731017910801,
                    0.03914532127592316,
                    0.6795272628686155,
                    0.22472822456098646,
                    0.9383308375420627,
                    -0.2869183987116788,
                    0.08798124598874445,
                    -0.13528433292365188,
                    1.3067955585436533,
                    1.300300104705151,
                    0.5975501635350262,
                    0.445185951896198,
                    0.020773406813949492,
                    0.054648150115909205,
                    1.7593556696967039
                ],
                [
                    -0.212431216450049,
                    -0.07462407122355513,
                    1.5402639668672045,
                    0.5820035270029267,
                    0.4097208531443948,
                    0.6053178393480928,
                    -0.6265649643488415,
                    1.198699745685484,
                    -0.4180870536456259,
                    0.4220021841241055,
                    -0.7431269436502906,
                    0.37194392129385834,
                    -0.9461113387087955,
                    -0.33529956856608156,
                    0.7601261177001091,
                    -0.5683617510879428,
                    0.10246742629387383,
                    -1.2443726736482015,
                    1.0328667189381513,
                    -0.37504919523589975,
                    -1.0486253515668305,
                    1.211018812562541,
                    0.6126779701786303,
                    -0.7204916335548249
                ],
                [
                    0.09034150629181302,
                    -0.026717363803442147,
                    -1.218393657229934,
                    -0.30813191244114646,
                    -0.6241217563413007,
                    -0.9213789935996669,
                    -0.08417770805367353,
                    -0.7804040321492793,
                    -1.3878077380780032,
                    0.06813711785831045,
                    -0.3139486741141593,
                    0.8332647346015973,
                    0.09549451113180632,
                    -0.23251828130588767,
                    0.09498614693328959,
                    -0.34760174643182046,
                    0.4553431670601388,
                    0.9458458014299725,
                    -1.9625393402234652,
                    -1.0699816629016863,
                    -0.8347677871161001,
                    -0.6007500073684441,
                    1.975757801168409,
                    0.11646309790698298
                ],
                [
                    -0.09797586459781868,
                    0.5874982742541726,
                    0.0722882939362959,
                    -0.2444432639058331,
                    0.2230620289541371,
                    -0.9246807875973998,
                    0.5835419892654592,
                    0.11238108081265896,
                    -0.33617851186237974,
                    1.2059679429185886,
                    0.4696369210812718,
                    0.9729588910084255,
                    0.046019728299859654,
                    -1.069583218954235,
                    -1.4049102606038748,
                    0.40742050637626404,
                    -1.4498225016285458,
                    -0.556256498900833,
                    0.7693610315077226,
                    0.7799902269072145,
                    -0.9899295986292915,
                    0.03811520478133089,
                    -1.5512315541519077,
                    -0.5288425207001757
                ],
                [
                    0.48299170906278577,
                    0.8380094064238425,
                    0.6842257612458879,
                    0.3960563946298767,
                    1.4592754101919165,
                    0.4620846898561703,
                    1.2460699439790406,
                    0.8529700868632449,
                    -0.017744476136190773,
                    1.8157410474031215,
                    0.03263664669498259,
                    -0.6326476732381937,
                    -0.9627186143990693,
                    1.0079746796851035,
                    -0.3745157271829134,
                    0.8476448930799475,
                    -1.0847240899185826,
                    -0.016316342924305522,
                    -0.14863374387700118,
                    -0.2537679454249676,
                    -1.085257137380947,
                    0.8534073315943954,
                    -0.9560613177595828,
                    -1.0916731631248033
                ],
                [
                    -1.5460336046676864,
                    -0.04063435990142451,
                    0.8870256598079428,
                    -0.8626089044143912,
                    -0.15660381577489269,
                    0.1598794669610989,
                    -0.6720719778504108,
                    -0.6368643395087538,
                    0.36071141527435735,
                    -0.22310234961929226,
                    -0.3691975662351959,
                    -0.9189472568729653,
                    -0.021614896345261193,
                    0.024989252035994447,
                    0.33769484261011434,
                    0.5357121512873644,
                    -1.1957633640771597,
                    0.019490063091550783,
                    -0.4280153738931491,
                    1.8820808988757765,
                    0.8853124043616082,
                    -0.27833072573792894,
                    -0.9594290710229727,
                    0.00404914171592774
                ],
                [
                    -0.44512852417466053,
                    0.6457087408129027,
                    0.9831723424776876,
                    1.3542668030789586,
                    -0.6871109058888855,
                    -0.6720286854267823,
                    0.7595827593552168,
                    -0.4676380607176812,
                    1.0663330079634066,
                    1.5516070365431147,
                    -0.41840597856723566,
                    -0.2995013781204717,
                    -0.8223432293905236,
                    -1.4066825286048443,
                    -0.11881243737162231,
                    0.8818190284399029,
                    0.027662971108537493,
                    0.7179710049877915,
                    -0.7447568068530794,
                    1.1286761413299686,
                    0.34791808879560876,
                    1.483930316427538,
                    0.11451014252929954,
                    -1.41254609102196
                ],
                [
                    -0.706687897662034,
                    -1.4780315742331285,
                    0.484300796303083,
                    0.8492326899756824,
                    0.010429673680023663,
                    1.3712554265876633,
                    -0.5886157157140001,
                    0.16603761997281663,
                    -1.0575945743775708,
                    -0.36793545076731243,
                    -0.6659489891284738,
                    -1.1322212212095093,
                    -0.06447513002634311,
                    0.7176934906956377,
                    -1.3485276558233918,
                    -0.3923908615295725,
                    0.4674179673641279,
                    0.27913996392129625,
                    0.13654688153147904,
                    0.2488457082671852,
                    -0.12108610897235511,
                    0.4180702977207232,
                    0.48126655435569177,
                    -0.7764860562998848
                ],
                [
                    0.3184710117261432,
                    -0.9436586133849204,
                    -0.5105550879354904,
                    -0.19563862702657236,
                    0.7062409182381382,
                    -0.9494034059652353,
                    -1.4321330322017811,
                    -0.5397753038959034,
                    -0.41752317366979463,
                    -0.15515885716446504,
                    -0.4922650444152993,
                    0.03894958454057375,
                    0.8658659768413004,
                    -0.3529516953824764,
                    -1.8693499700303513,
                    1.0842006597364087,
                    0.0011878556151911877,
                    0.5280545173721704,
                    0.1348192810635192,
                    -1.2811988087089161,
                    0.18610436666679048,
                    -0.3725656414922559,
                    1.3422250296430074,
                    -0.04566341052764884
                ],
                [
                    -0.21747810130998052,
                    -1.1427323288343993,
                    -0.32930393206156516,
                    0.1663234598730289,
                    -0.24180441000882374,
                    0.1626386094048644,
                    0.4951776050173971,
                    0.568723892706056,
                    0.293582275337614,
                    -1.4931833351863804,
                    -0.1542064215983183,
                    -1.2671474833914347,
                    -0.4651839865575729,
                    -0.32292556356646035,
                    -0.23772247508204444,
                    -0.6930525426946992,
                    1.2425368116458504,
                    -0.5500946741062858,
                    0.6761923860525677,
                    1.2892329084626248,
                    0.4444810549542294,
                    -1.6725280168687142,
                    -0.849102305114492,
                    0.724118724400072
                ],
                [
                    -1.366447637746667,
                    -0.2999097240026452,
                    -0.9581422887130392,
                    1.91641009940066,
                    -0.4257837220731224,
                    -0.8846120927288816,
                    1.1739610674854561,
                    -0.38385607381038855,
                    0.1753759815193926,
                    1.4713952220436008,
                    1.0348140142445619,
                    -1.0045108353569407,
                    0.5318616017096442,
                    0.9793824260127209,
                    -1.1892736379354694,
                    1.0608577298340915,
                    -0.029813541113135326,
                    -0.9205365967618446,
                    -0.17431646991828062,
                    0.6719525337140075,
                    -0.7568409114799329,
                    -1.7115587646965291,
                    -0.20214366337805442,
                    -0.6358206692740913
                ],
                [
                    0.9707350223048536,
                    -1.5745405113913313,
                    1.5078435973157271,
                    -0.28630021575543235,
                    0.5152964843959839,
                    -0.15303097953480962,
                    0.36654748240826773,
                    0.12501229484775458,
                    -0.23276279272055034,
                    0.120678875122795,
                    -1.232855181233809,
                    -0.6073617766958882,
                    -0.06872855049291104,
                    0.20144100188768968,
                    -0.012501353431474554,
                    1.2288155112631838,
                    -1.8860792430214184,
                    0.3971218487276327,
                    -1.1652445097847202,
                    -2.372570402462865,
                    -0.9397368545315966,
                    -0.2636734220957566,
                    0.2960760027600007,
                    0.17367994899803174
                ]
            ],
            "b": [
                -0.007236607312897509,
                0.05834132765134267,
                -0.17851749463521027,
                -0.19331858885482112,
                -0.03269883855760343,
                0.0007872795371471827,
                0.0648321783838125,
                -0.09356792744039015,
                -0.12175155846397438,
                -0.06448223046981495,
                0.010306226984064554,
                -0.5570177712352099,
                0.017289628225020955,
                0.4333731961053598,
                0.059088364115981395,
                -0.025716420342524023,
                0.2745128860907552,
                0.04141990580858286,
                -0.28793843823904547,
                -0.26718644953657605,
                0.16103567564810548,
                0.30185697713981635,
                -0.15137845575981135,
                -0.07798581186631635
            ]
        },
        {
            "w": [
                [
                    -2.398718684379927,
                    -0.04051123640371018,
                    -0.8598628615907357,
                    2.2821851248268348
                ],
                [
                    2.512921253893955,
                    0.20789709421293096,
                    -1.2107401183154693,
                    1.3581455467162806
                ],
                [
                    1.3028954875023857,
                    1.5003956083374668,
                    -0.9909970617134563,
                    1.531363123923192
                ],
                [
                    2.4659001812197774,
                    -1.2292021515171538,
                    -1.9309190571607135,
                    0.1964550822248789
                ],
                [
                    0.14341927835940832,
                    1.825761940252114,
                    1.0122260190285428,
                    -1.4088674955215494
                ],
                [
                    -0.9217630640962315,
                    2.924263560935392,
                    -1.349744577134838,
                    -1.9405037956303768
                ],
                [
                    0.015345323330025765,
                    -1.6959586513246516,
                    -0.1481597151203684,
                    1.9393468734713437
                ],
                [
                    1.999711100703148,
                    2.8703276165513625,
                    2.3791322762885048,
                    1.8671028237924594
                ],
                [
                    2.3031942043655955,
                    1.6952616096879134,
                    0.12595726565189563,
                    1.2861905216384713
                ],
                [
                    1.5090831710287405,
                    -1.8515520752809496,
                    -1.3652732393267561,
                    -2.413492301380982
                ],
                [
                    0.9728014463038896,
                    2.004073693787155,
                    1.3873450989282425,
                    1.300632560531097
                ],
                [
                    -0.10991342321564537,
                    -1.5055687850146036,
                    -1.807511127341827,
                    -1.0388507285376334
                ],
                [
                    -0.36281593852806177,
                    -2.406551604183054,
                    2.0943020034879907,
                    2.0805064963068878
                ],
                [
                    0.9801599102028464,
                    -2.5206299869822937,
                    -0.02479146951202139,
                    2.9116453703814296
                ],
                [
                    -1.6701933667561164,
                    -2.492824124420845,
                    2.462594872004125,
                    -1.2004603186202036
                ],
                [
                    1.1545523256638488,
                    0.29733281060306527,
                    0.5994020275531697,
                    1.7638750772803218
                ],
                [
                    2.6863027741644734,
                    -1.5508770004740464,
                    -0.8098488084266733,
                    -2.512633777599277
                ],
                [
                    -2.247041764706267,
                    -0.02916949689596192,
                    2.3458208698425658,
                    0.789909436632406
                ],
                [
                    -2.1593903016520395,
                    0.29186048542488024,
                    2.6678047882825138,
                    -2.4355693218406778
                ],
                [
                    0.15258300814258755,
                    -0.7600635213302569,
                    1.2646527477213454,
                    2.114581848759771
                ],
                [
                    -1.3554565094302544,
                    -2.10637426603009,
                    0.9586826673332675,
                    -0.49539039192459666
                ],
                [
                    -0.2437049564829362,
                    -2.8251916740007985,
                    0.13710410186924546,
                    0.497366201298022
                ],
                [
                    1.783075630174705,
                    0.32480652457867776,
                    -1.3203144990088704,
                    1.4120282850840165
                ],
                [
                    -0.4245993398408812,
                    -1.4232842383215616,
                    0.9852103471559962,
                    1.6162883872121196
                ]
            ],
            "b": [
                0.16125693707833338,
                0.19409269639804172,
                -0.010061345037807715,
                -0.02574286102425718
            ]
        }
    ],
    "lookbacks": {
        "sma": 36,
        "ema": 141,
        "rsi": 35,
        "macd_f": 22,
        "macd_s": 49,
        "adx": 44,
        "trix": 38,
        "slope": 17,
        "vol": 59,
        "atr": 38,
        "mfi": 33,
        "bb": 44
    },
    "hysteresis": 0.06816414369673603,
    "lock_days": 1,
    "smoothing": 0.2374312134674473
}