{
    "version": "v9_confidence",
    "layers": [
        {
            "w": [
                [
                    -0.9128525546828338,
                    0.31866877370721697,
                    -0.5321482468550247,
                    -0.028647546430094116,
                    0.6269115448442848,
                    1.1361262925319762,
                    0.3582219209518329,
                    0.9653389562024612,
                    1.615267883209221,
                    -0.8130248464456199,
                    -0.33740658313087807,
                    -0.5502971712740052,
                    -1.2024323337657286,
                    -0.636059844562249,
                    0.7460133026204149,
                    -0.6664832151384711,
                    -0.9810351411432283,
                    0.961864937406105,
                    -0.329152111144403,
                    0.26806544004273736,
                    0.8497661116693349,
                    -0.265200047458055,
                    -0.2822604307659174,
                    -0.2257536503213664
                ],
                [
                    -0.9712660436639339,
                    0.7512145623128521,
                    0.005097821504140329,
                    -0.3170527434687227,
                    0.7205024988651489,
                    -0.5705069730419432,
                    0.12795981084084868,
                    0.9538543921478801,
                    0.8261390173256496,
                    -0.8418958402128599,
                    0.06722232002513856,
                    0.666650822169348,
                    0.20492695301606317,
                    1.021945541692925,
                    -0.26180416906052945,
                    0.10176141079731539,
                    -0.31254553322023826,
                    1.2119112511937302,
                    1.3325803092495536,
                    0.686442072093805,
                    0.36653175282700107,
                    0.23147775559154515,
                    0.11453964251339255,
                    1.825882128345396
                ],
                [
                    -0.2029806077140394,
                    -0.11096760464276795,
                    1.5044064061164333,
                    0.38901383313669946,
                    0.3537437729253322,
                    0.5163754106658613,
                    -0.613083849535353,
                    1.199951323303775,
                    -0.48173248706579674,
                    0.4753298789875474,
                    -0.7879817502696419,
                    0.4048311063099579,
                    -1.0848505134534598,
                    -0.18265184972706394,
                    0.7520999607925049,
                    -0.5734674620669041,
                    0.18554357125951274,
                    -1.150977869646565,
                    1.067444149046451,
                    -0.2821320728251942,
                    -0.8476442695760565,
                    1.3332742798656052,
                    0.7558671962292409,
                    -0.6946562976011991
                ],
                [
                    -0.023372967003189613,
                    0.18877717542204756,
                    -1.1322452739553834,
                    -0.36135462806168334,
                    -0.5850223001622179,
                    -0.851190086388506,
                    -0.040046731069598766,
                    -0.938341860406011,
                    -1.3202106829725915,
                    0.0015810701131525502,
                    -0.41164861373381867,
                    0.7601491839492764,
                    0.18991563010318313,
                    -0.2599230221409226,
                    0.1534391398447448,
                    -0.2601392952987064,
                    0.30463149301495074,
                    0.9295931938910938,
                    -2.0039157392152935,
                    -1.0929778247855715,
                    -0.7957423917399058,
                    -0.5350421365059053,
                    1.8936426934743775,
                    0.003911115998639518
                ],
                [
                    -0.1671577406889867,
                    0.7763229540632992,
                    0.033215852736437644,
                    -0.1641415333918736,
                    0.09001822048322178,
                    -0.938534887666779,
                    0.673851881414811,
                    0.15368335741056394,
                    -0.32917240363492417,
                    1.0668762065023172,
                    0.6315767539310364,
                    0.7821354715438381,
                    -0.20472925661858032,
                    -1.1187444382596328,
                    -1.5000281715449342,
                    0.35631927187354606,
                    -1.6018091916348947,
                    -0.47261198861933795,
                    0.8309090891303392,
                    0.602750186802755,
                    -0.7944913682389105,
                    -0.022738310591313295,
                    -1.5104236326189977,
                    -0.4922766041148762
                ],
                [
                    0.4374704974379904,
                    0.7032283370902814,
                    0.9284626726126033,
                    0.3753717151162861,
                    1.5425931290970853,
                    0.4472631420841945,
                    1.2576764146489325,
                    0.9358845078964029,
                    0.017724574696661784,
                    1.8369140436449214,
                    0.005232431157420024,
                    -0.6410339500504245,
                    -0.7515781766293674,
                    1.0996079080473724,
                    -0.33256880456420057,
                    0.7655364230109695,
                    -1.0666968940527608,
                    0.0007552566800819427,
                    -0.19471133041985927,
                    -0.28967461575748166,
                    -1.2992019267461123,
                    0.9127965818257122,
                    -0.9916057992840239,
                    -0.942127697651334
                ],
                [
                    -1.546617682166166,
                    0.03722933525621869,
                    0.873278599932875,
                    -0.8088350355587295,
                    -0.08223922760818106,
                    0.2083143733816073,
                    -0.8686410154525379,
                    -0.7228328285222847,
                    0.44189370184078225,
                    -0.3733976794460815,
                    -0.3066304076031263,
                    -0.9155590648531124,
                    -0.1648591366163571,
                    0.023391894898293394,
                    0.31338315980988,
                    0.5020139812940178,
                    -1.2160966232282702,
                    -0.020679505185776208,
                    -0.37677979239048154,
                    1.9432020817163413,
                    0.7920569672955845,
                    -0.4463467576236853,
                    -0.9397680293384519,
                    -0.2673284283166968
                ],
                [
                    -0.37490891671392956,
                    0.6145813117382385,
                    1.0639256659522485,
                    1.254147387485119,
                    -0.588507361159995,
                    -0.6261703757996802,
                    0.8906969818391167,
                    -0.25389256937426596,
                    1.0027482149357465,
                    1.4714566335122838,
                    -0.36385181972257186,
                    -0.4222332057368108,
                    -0.7368382925081436,
                    -1.431971992263096,
                    -0.1122818553641948,
                    0.9322320733050455,
                    -0.06416637312690285,
                    0.7183318546185032,
                    -0.5785129511398948,
                    1.1611328091872808,
                    0.3612610700416312,
                    1.2442489607334841,
                    -0.0782095599042949,
                    -1.4874133365421154
                ],
                [
                    -0.7878518407805996,
                    -1.5364478616471462,
                    0.5262387379038881,
                    0.9157999281570074,
                    0.08406158268003772,
                    1.4641785783378005,
                    -0.6850475285744535,
                    0.06709318185921806,
                    -1.0079381963264513,
                    -0.3432064657612736,
                    -0.6131449443377014,
                    -1.0689657089479534,
                    -0.08561292867885248,
                    0.5700261086234673,
                    -1.0422662226086297,
                    -0.5494297030505841,
                    0.46743090641001067,
                    0.1903690399157131,
                    0.11063799493687014,
                    0.21918235557305793,
                    0.014602293140837726,
                    0.1927078325497833,
                    0.5917908137930937,
                    -0.637811457807014
                ],
                [
                    0.39695241982666446,
                    -1.0012755131286522,
                    -0.4755704697835722,
                    -0.22467445256444873,
                    0.6175771455766819,
                    -0.8284663450160172,
                    -1.3908287598634868,
                    -0.7287554141881131,
                    -0.5368685597176316,
                    -0.18805030404523154,
                    -0.5040656195094749,
                    0.00811657918261097,
                    0.8174204150373059,
                    -0.5856739227255011,
                    -1.9330520551745323,
                    1.1487679686245063,
                    0.07861035191245505,
                    0.4729003103171454,
                    0.06213140081374004,
                    -1.389788181208068,
                    0.26289830171211054,
                    -0.4254695709170715,
                    1.3826298624009739,
                    -0.06862261080216564
                ],
                [
                    -0.3170388295719614,
                    -1.1748507727489088,
                    -0.41662451287634666,
                    0.24126765353776206,
                    -0.1598115207604007,
                    0.16811611721099307,
                    0.5922357681847212,
                    0.4603361397159581,
                    0.26248351509748197,
                    -1.4998586703096275,
                    0.011471310908275219,
                    -1.264426188979593,
                    -0.574263857693983,
                    -0.3077241329155036,
                    -0.12249947743097707,
                    -0.6184703410272547,
                    1.1857229707953727,
                    -0.6961733033624595,
                    0.7369619582419403,
                    1.193722305830375,
                    0.4217570203329833,
                    -1.628492474773641,
                    -0.9919242198496646,
                    0.8478131321007508
                ],
                [
                    -1.5046559757141855,
                    -0.267064429964232,
                    -1.1865210432292994,
                    2.0356929627102316,
                    -0.28902644400010974,
                    -1.0091318621937932,
                    1.0186479422991772,
                    -0.6021669009491324,
                    0.1402605831068076,
                    1.2416890745059301,
                    1.006347190471624,
                    -1.1122942524214496,
                    0.43352324612264564,
                    0.9343191369296242,
                    -1.0206498468297271,
                    1.0731112153372724,
                    0.03482387882435324,
                    -0.7861068219941204,
                    -0.35622274269963355,
                    0.693939550802266,
                    -0.8569495725964122,
                    -1.6039049725175154,
                    -0.1799242349251446,
                    -0.5391714374640048
                ],
                [
                    1.0483694737021834,
                    -1.5822094556168524,
                    1.5418104782494786,
                    -0.23589367094554078,
                    0.6060274367897296,
                    -0.16138255720603986,
                    0.4688056934509073,
                    0.2139188613038945,
                    -0.04167657393350575,
                    0.10529197084691677,
                    -1.102841852856019,
                    -0.45133746199344443,
                    -0.14404394702668108,
                    0.22207895568847802,
                    0.0030229169689779956,
                    1.3476994702358887,
                    -1.725843419582625,
                    0.3852793949263705,
                    -1.108683655459259,
                    -2.181628217236294,
                    -1.0734551419315297,
                    -0.2354818063701735,
                    0.2682843450233597,
                    0.18054378057392717
                ]
            ],
            "b": [
                0.009689721158094716,
                0.10190872107722525,
                -0.1806766489193223,
                -0.22473986971408494,
                -0.031596964210130384,
                -0.03165417609377854,
                0.13010692993789436,
                -0.08617857218450584,
                -0.10962194313429005,
                -0.019783737414377618,
                -0.0600549531376091,
                -0.5424211529355549,
                -0.00037986861823740073,
                0.5017537147867326,
                0.15315440727768628,
                -0.007185019009256142,
                0.3569535853301729,
                0.023400632901431007,
                -0.25055436132125053,
                -0.2749916930468278,
                0.06031530089529512,
                0.3370872581524927,
                -0.2560302091940726,
                -0.044005611243628125
            ]
        },
        {
            "w": [
                [
                    -2.3797622962482774,
                    -0.05923082484238691,
                    -0.9087696673207543,
                    2.148585329374773
                ],
                [
                    2.5024112983154168,
                    0.11897685082073597,
                    -1.2253637847444445,
                    1.2300351929880702
                ],
                [
                    1.2632852488264386,
                    1.3708659648188697,
                    -0.721177137980991,
                    1.5030962065289715
                ],
                [
                    2.5764402852191974,
                    -1.2993339670771147,
                    -1.8457447994585283,
                    0.23310368128524347
                ],
                [
                    0.10635327426145419,
                    1.8776518736322865,
                    0.9687000736522342,
                    -1.2485839212794345
                ],
                [
                    -0.8532325528741287,
                    2.9935985577662008,
                    -1.3920373691983827,
                    -1.9329468642676921
                ],
                [
                    0.09011169711512008,
                    -1.7589506941498096,
                    -0.13742419392537378,
                    2.0173197795601214
                ],
                [
                    2.0949024151160494,
                    2.8433520049280414,
                    2.2401427448212945,
                    1.8687375101116563
                ],
                [
                    2.1837606567722285,
                    1.6598368968438637,
                    0.22140179775556357,
                    1.2691278230565346
                ],
                [
                    1.4464254385897495,
                    -1.8271895268895202,
                    -1.3043915936079407,
                    -2.340123296650618
                ],
                [
                    0.8876866333542114,
                    1.9641740125232658,
                    1.5020497398729384,
                    1.3249751694261254
                ],
                [
                    -0.13352493033645102,
                    -1.6155788581753252,
                    -1.7590201216322525,
                    -1.0064180115592798
                ],
                [
                    -0.37449691869949436,
                    -2.4139328583262527,
                    2.045433242359754,
                    2.109578927340643
                ],
                [
                    0.9708726459462351,
                    -2.5363468328472467,
                    -0.04993870817332331,
                    2.816021477764469
                ],
                [
                    -1.6106052222476681,
                    -2.465411800900495,
                    2.3989516407128515,
                    -1.214930870736485
                ],
                [
                    1.2712668002558236,
                    0.06370830633262463,
                    0.6584114326398697,
                    1.771454397046622
                ],
                [
                    2.547063210276764,
                    -1.6776600722848203,
                    -0.9012987344247826,
                    -2.4482322296786547
                ],
                [
                    -2.2356117559372906,
                    -0.013158998785480835,
                    2.131150919364074,
                    0.6676254523963016
                ],
                [
                    -2.2767749252384184,
                    0.46504358921074274,
                    2.6388948819311024,
                    -2.477812767126409
                ],
                [
                    0.050257728747111326,
                    -0.6690626316609984,
                    1.16871677102491,
                    2.1554245053485728
                ],
                [
                    -1.5096118865956918,
                    -2.0720647374061185,
                    1.102441358014381,
                    -0.5027696740444462
                ],
                [
                    -0.26444646067102984,
                    -2.8382887752624715,
                    0.15535738895330337,
                    0.47973523291207637
                ],
                [
                    1.7623146436379362,
                    0.1715146828651659,
                    -1.2388324951827832,
                    1.4493744940307456
                ],
                [
                    -0.4791711884331995,
                    -1.3783127971238165,
                    0.987835729774166,
                    1.5405479045664967
                ]
            ],
            "b": [
                0.1865105754439072,
                0.19098622498645434,
                0.09206820645226138,
                -0.04971781279233242
            ]
        }
    ],
    "lookbacks": {
        "sma": 20,
        "ema": 138,
        "rsi": 32,
        "macd_f": 17,
        "macd_s": 41,
        "adx": 35,
        "trix": 41,
        "slope": 17,
        "vol": 36,
        "atr": 42,
        "mfi": 32,
        "bb": 55
    },
    "hysteresis": 0.04488899077445034,
    "lock_days": 1.9548269819814004,
    "smoothing": 0.2624911021965608
}