{
    "version": "v7_deep_fluid",
    "layers": [
        {
            "w": [
                [
                    0.7482109838520216,
                    -0.4949723892533602,
                    -0.651628467991336,
                    0.4748323066614856,
                    -0.024417215821859156,
                    0.1705695054411342,
                    -0.8929135685119941,
                    -0.8430970659259654,
                    1.2480276517011766,
                    -0.6557845796963027,
                    0.8672132255531426,
                    0.8856716192662579,
                    -0.320021153481668,
                    1.16286538006349,
                    -0.8991185195777137,
                    -0.37373304738671986,
                    0.44817153204078936,
                    -0.47749382659850176,
                    1.3006880436091486,
                    -0.15150733082105372,
                    1.0603568491268396,
                    0.4212082254315163,
                    -0.5659911781610522,
                    0.49625142245883336
                ],
                [
                    0.9856695819154607,
                    -0.02138104476234217,
                    0.3210414451585924,
                    -0.739784696972113,
                    -0.20354542960278646,
                    0.15017269971787833,
                    -0.9305425106670792,
                    0.887669385419417,
                    -0.8467678535767025,
                    -0.31430211304359146,
                    -0.18189714815118962,
                    0.9729520765863579,
                    -1.212749050946484,
                    -1.0502865894470617,
                    0.9134078083036719,
                    0.12652386138370197,
                    0.8479384844113576,
                    0.1882989380072827,
                    -0.8664735358629272,
                    0.6464823519496637,
                    0.044765463446143475,
                    0.12198813005041145,
                    0.5880092627551126,
                    -1.2385940233343777
                ],
                [
                    -0.9701912240376318,
                    0.22839239642085069,
                    -0.7004472002549089,
                    -0.3881918573677286,
                    0.15705390346732664,
                    0.40085792060318487,
                    -0.6024978419056687,
                    -0.04566651393429733,
                    0.8640469207304506,
                    0.6860361207431507,
                    0.005158267886554234,
                    -0.15776084276100796,
                    -0.486263013655258,
                    1.0012233148187992,
                    -0.941879022080167,
                    -0.2899756683478884,
                    1.2412703067269908,
                    0.9486335173971168,
                    0.3074955851921299,
                    -0.642193001207195,
                    0.7555889895480895,
                    0.3802268386208191,
                    -1.0347328518661154,
                    -0.5958105923589737
                ],
                [
                    0.27768071821236284,
                    -0.17218183645580687,
                    -0.1797488015040079,
                    0.6543108133348297,
                    -0.0887531195226098,
                    0.8885985536534299,
                    0.9247201733167751,
                    -0.5973776879704266,
                    -0.14664025326045124,
                    0.8722526481144349,
                    0.07031810457372759,
                    0.9468794152015457,
                    -1.3829509377601805,
                    -0.005832338199817946,
                    -0.8917069484340804,
                    0.8947418212024048,
                    -0.6413518624353196,
                    -0.42865355523620285,
                    0.6879861113966832,
                    0.44292020298682033,
                    0.7766015359761942,
                    0.6829793644193284,
                    0.5103965019057657,
                    0.733984997561557
                ],
                [
                    0.2872658887727866,
                    0.8930981108600341,
                    0.1777945996408858,
                    1.4989716019540147,
                    -0.8727602842560244,
                    -0.24008461064475084,
                    -0.813984269763329,
                    -0.5677620152288501,
                    -0.49011094641024827,
                    -1.933158136434517,
                    0.23310879282928326,
                    1.0199057114307768,
                    0.873202484220632,
                    -0.04063766637614412,
                    0.1998569820387798,
                    -1.2644220907556356,
                    0.9322771263045345,
                    -0.6084397972508044,
                    0.7569875757288949,
                    -0.2201463480815514,
                    0.9602844633025385,
                    -0.15924388310320087,
                    0.0543883608965717,
                    0.1381900827243295
                ],
                [
                    -0.8331519944613627,
                    0.2671639928584135,
                    -0.28855367976165164,
                    -0.031230369958626734,
                    -0.3507420810509516,
                    -1.0926510259566986,
                    -0.5577921964150869,
                    0.381618400297736,
                    0.5436842400501807,
                    0.048293579185387465,
                    -0.09778296263117918,
                    0.22755994432323,
                    -0.3740926158088165,
                    0.5778446680131261,
                    0.032238744519969366,
                    -0.5130491171840258,
                    0.8014381784412568,
                    0.23718626979933313,
                    -0.13955201522899807,
                    -0.5417304890471887,
                    1.2176337226265024,
                    0.7781025430038457,
                    -0.6458606309899673,
                    0.5229998619011841
                ],
                [
                    -0.0701629648443815,
                    0.40800723770646974,
                    -0.5260679649134531,
                    -0.20401233536288396,
                    0.5877088270236454,
                    1.8246864930341378,
                    0.36378885555295626,
                    -0.1976464869739753,
                    -0.19391701600595904,
                    0.35866669776139093,
                    -0.15581714594215595,
                    1.2228276914176104,
                    0.26669178216363953,
                    0.2946110981110951,
                    0.8900650518600781,
                    0.014834393584689675,
                    -0.7769205505780211,
                    -0.8615439210691161,
                    0.06539016266095393,
                    0.6776136802868984,
                    -0.946081683198943,
                    0.7407369434017101,
                    -0.7600286781247739,
                    0.7541616194371855
                ],
                [
                    0.897417522491247,
                    -0.6959864415364371,
                    -0.42526968260741455,
                    1.1529717753478934,
                    -0.11321889774736225,
                    -0.5303522309308585,
                    0.020603278631065664,
                    0.3464128193881037,
                    0.03446053820819907,
                    0.3264997579993742,
                    0.2809295176792177,
                    -0.724318823874659,
                    0.7989975818581749,
                    -0.6927611711241033,
                    -0.8815082398709908,
                    0.08602519309603872,
                    0.36400083956287865,
                    -0.6583293974869802,
                    -0.3428326996843362,
                    0.13008705392894526,
                    -0.5482225273120735,
                    0.390629490490224,
                    0.3650453389282046,
                    0.06605460726525338
                ],
                [
                    -1.1758824349159558,
                    -0.4224595549288416,
                    0.516566913130718,
                    0.7902066298693124,
                    -1.108657783705699,
                    -0.06006646104141865,
                    0.47240425121817,
                    -0.5965248087154453,
                    0.20800288366491276,
                    0.16013312198544713,
                    -0.7719443993563677,
                    0.23677357962270723,
                    1.0459547137686063,
                    1.1478143390793802,
                    0.37915789997538185,
                    -0.3538788159472974,
                    -0.19435928364382699,
                    0.525316666907062,
                    0.5564270983474202,
                    -0.09143401159398366,
                    -0.475514040465745,
                    0.769097917204891,
                    -0.9652391948437096,
                    0.23524783260659343
                ],
                [
                    0.07424946644735853,
                    0.01997835852167313,
                    -0.09234205054091824,
                    -0.8843389017365529,
                    0.7665185182747254,
                    0.1563706746086393,
                    0.20147840824048396,
                    -0.6820529715085532,
                    0.486661399891397,
                    -0.8807909418561833,
                    -1.2189422892000523,
                    1.0582861700463018,
                    1.0158174328393452,
                    -0.2924733124735266,
                    -0.9745534543490222,
                    0.12158803365580577,
                    -0.6996651452467955,
                    -0.8760982397721959,
                    -0.2245566030501776,
                    -0.28484791734627646,
                    0.8113919514097802,
                    -0.8451849363399981,
                    0.29960441807845173,
                    0.9452302396012919
                ],
                [
                    0.9473628324841002,
                    0.9899825712492021,
                    -0.3822466349082257,
                    1.1518482254999705,
                    -0.5003839837676174,
                    0.30201363836243694,
                    0.7160765765999401,
                    -0.7920783833528721,
                    -0.15046504651092943,
                    -0.12944706849803672,
                    0.6507866485326409,
                    -0.570868496303653,
                    -0.7400503956980349,
                    0.46036057817381587,
                    -0.14722348317208206,
                    -0.04907159044416911,
                    -0.06152350193665397,
                    0.329088034556948,
                    -0.0633612664046779,
                    -0.629313706984645,
                    -0.855693883287758,
                    -1.1312920522978709,
                    -0.5079126830335757,
                    -0.1980231534065706
                ],
                [
                    -0.6319816515848832,
                    0.26990691861699123,
                    0.8969881582950485,
                    0.15996060579754717,
                    -0.2142880537443678,
                    0.1894994717111559,
                    0.488635266532433,
                    0.8940962853264596,
                    -0.3903043229884325,
                    0.3757645049027375,
                    0.14412154840896557,
                    -0.9128326588727799,
                    0.8330196287049175,
                    0.09035405446727028,
                    -1.028847699145567,
                    0.22472063752615207,
                    -0.08286898814123449,
                    0.02912669756452053,
                    0.14740861494931165,
                    -1.050288276387225,
                    0.7083081832323417,
                    -0.7207758889448965,
                    -0.10673315435111931,
                    -0.5322090875676939
                ],
                [
                    1.1615868386096628,
                    -0.6908723584958972,
                    0.2046436418180976,
                    0.940849535520692,
                    0.39120460248045574,
                    0.40401021818576033,
                    0.42496904061257573,
                    -0.038016756346976405,
                    0.7017239257550678,
                    -0.5695863965657598,
                    0.4214812652750163,
                    0.2655147919534844,
                    0.8320988615074614,
                    1.0551154698131864,
                    -0.08546895809670291,
                    -1.2377505068292727,
                    1.0835680757525528,
                    -0.8756399025647476,
                    -0.7286364674474746,
                    -0.985378737176335,
                    -0.7392077409870731,
                    0.2398034566652749,
                    0.8832052820126086,
                    0.32265606752315634
                ]
            ],
            "b": [
                -0.005224962851453243,
                0.018681025850513948,
                -0.02631137834830834,
                0.038547368667122175,
                0.046400394166003486,
                -0.07774615029698739,
                0.08265355355478762,
                0.19508565659271795,
                0.09465961727514263,
                0.07224603407332525,
                -0.15159149687708592,
                0.056846092334622636,
                0.08851922338680515,
                0.009494995084866398,
                0.01022053786179679,
                0.005262803195052531,
                0.12544313872920923,
                -0.09639332307876439,
                0.07636617878203769,
                -0.045963796401744625,
                -0.02979911143050051,
                -0.0013109218625491584,
                -0.20216197062135077,
                -0.09896723602625804
            ]
        },
        {
            "w": [
                [
                    -1.3870323616617217,
                    -0.28912450393091504,
                    -0.892918216792912,
                    1.4055152235567752
                ],
                [
                    0.3564777082818579,
                    0.897001403841646,
                    0.9772922375595811,
                    -0.3556855071223187
                ],
                [
                    -0.10089896254603276,
                    -0.37267216283237414,
                    -0.7596208677322693,
                    -0.7027763663570691
                ],
                [
                    0.4322262556139905,
                    -0.14822317138949168,
                    1.1143701791611313,
                    0.5536330289084155
                ],
                [
                    0.10532092139059743,
                    -0.9115531830142918,
                    -1.020510597012751,
                    -0.08693874814388458
                ],
                [
                    -0.8708823525215921,
                    -1.0195193554581483,
                    0.08641767101249823,
                    0.22947263148662742
                ],
                [
                    0.7364300885249131,
                    -0.7814019943130269,
                    -1.1263561813918002,
                    -0.31535503111887714
                ],
                [
                    -0.8749247884172471,
                    -0.053322657143147656,
                    -0.5463111442149806,
                    0.123303274546906
                ],
                [
                    -0.5759267796306072,
                    -0.696578747972481,
                    0.7781363969239133,
                    0.31463443811652275
                ],
                [
                    -0.6626543900615434,
                    -0.33690154016861906,
                    1.2655375463548926,
                    -0.24272941423077302
                ],
                [
                    -0.05859872920637102,
                    -0.03431367224790833,
                    0.7596859975041387,
                    1.1182036675802267
                ],
                [
                    -0.9263442699368276,
                    0.12940423853426733,
                    -0.5117666602234352,
                    0.8894419154534633
                ],
                [
                    0.8504469186454419,
                    -0.4879875511870483,
                    -0.36021212498214067,
                    0.19323923968275614
                ],
                [
                    -0.009464279413175278,
                    0.25901004557468865,
                    -0.29062279636404165,
                    -0.9387818702548086
                ],
                [
                    -1.0112210932893078,
                    -0.46115781361413194,
                    0.807680964976013,
                    0.6788685426968063
                ],
                [
                    -0.4738534575087798,
                    0.18595514611603453,
                    0.8340360713180334,
                    -0.654725661103877
                ],
                [
                    -0.7101394296286451,
                    -0.6743181021579687,
                    -0.8639632218766949,
                    0.06743877807742502
                ],
                [
                    0.24883020364262498,
                    0.4921585642432553,
                    0.6996622460058947,
                    1.5059534750946402
                ],
                [
                    -0.6253740181824353,
                    0.6835867972456782,
                    0.7593937521889516,
                    -0.37220662983128305
                ],
                [
                    0.13700591029485526,
                    0.851067486232629,
                    -0.6190515415149822,
                    1.14561917339321
                ],
                [
                    -0.6518352234054481,
                    -0.5956175989085634,
                    -0.08448240510377204,
                    1.1496479875057837
                ],
                [
                    -0.3608654665959078,
                    -0.08699446549188478,
                    -0.6101619510329501,
                    0.08915181642302071
                ],
                [
                    -0.7040577903138943,
                    -0.0524115195050741,
                    -0.12994613980607284,
                    0.9511765692076632
                ],
                [
                    0.026525906001411678,
                    -0.02000615903335313,
                    -0.21010405132787005,
                    0.5365039259216972
                ]
            ],
            "b": [
                0.04904280749310264,
                -0.09960136772575717,
                -0.037515258724260356,
                -0.13355895941381798
            ]
        }
    ],
    "lookbacks": {
        "sma": 121,
        "ema": 177,
        "rsi": 23,
        "macd_f": 12,
        "macd_s": 15,
        "adx": 35,
        "trix": 46,
        "slope": 45,
        "vol": 21,
        "atr": 5,
        "mfi": 52,
        "bb": 57
    },
    "lock_days": 7.765652962424446,
    "rebalance_threshold": 0.037533457319436025
}