{
    "version": "v7_deep_fluid",
    "layers": [
        {
            "w": [
                [
                    0.419608565347825,
                    -0.7100508913190572,
                    -0.8257511309524089,
                    0.5491645469579545,
                    0.030613538692091474,
                    0.4242006703531658,
                    -0.8330748426754755,
                    -0.7572728672531304,
                    1.1866885786272385,
                    -0.7105059538947869,
                    0.9519826778463018,
                    0.7933669927595973,
                    -0.3754807347881033,
                    1.030936756749745,
                    -0.7761820677621251,
                    -0.6445092678193727,
                    0.4025160594232576,
                    -0.46234397246637854,
                    0.05622107008599398,
                    -0.13233562677130856,
                    1.0713986438767764,
                    0.5791752926466875,
                    -0.5645430412989194,
                    0.6164726513995292
                ],
                [
                    0.879053227691136,
                    0.02342261941630538,
                    0.41532622534100433,
                    -0.8384417845467682,
                    -0.20094093493699222,
                    0.36073668548780524,
                    -0.8982588483163951,
                    0.26919036034288785,
                    -0.8903134536052785,
                    -0.32084969116952855,
                    -0.3326851108778264,
                    0.9605348393591571,
                    -0.2730337867389614,
                    -1.0986783071898794,
                    0.8138764869090751,
                    0.07724623601069217,
                    0.8362789438634393,
                    0.2835949891153048,
                    -0.8160399494938586,
                    0.4805637618581925,
                    -0.003854040057099384,
                    0.16684221555791717,
                    0.4981148038023325,
                    -1.0833030998959947
                ],
                [
                    -0.6703560101953507,
                    0.40325328844148095,
                    -0.5977370786281411,
                    -0.46876677528699684,
                    0.0026607553226693573,
                    -0.6293549726424061,
                    -0.6607650140858272,
                    -0.09653115405599162,
                    0.9934514223172609,
                    0.705028086387988,
                    -0.012190595390536423,
                    -0.18574595466273086,
                    -0.4382797924166714,
                    1.0424304769565826,
                    -0.9561913503017033,
                    -0.2654854075471001,
                    1.123445447085294,
                    0.8231347149942407,
                    0.20995678500737486,
                    -0.5470973217472408,
                    0.6523750336510125,
                    0.4417825941971784,
                    -0.9721575355367225,
                    -0.5561378785131759
                ],
                [
                    0.27184293213510025,
                    -0.1456679116737259,
                    -0.24068620347170303,
                    0.5687000495630705,
                    -0.03088913242270261,
                    1.027526895422947,
                    0.9779874711977246,
                    -0.2649229106970431,
                    -0.05100448504088375,
                    0.9609138106290172,
                    0.04648053817753135,
                    0.9070797402880239,
                    -1.2330740529288073,
                    -0.012861299077902184,
                    -0.9625082780005367,
                    0.8991991580402966,
                    -0.38865137298221886,
                    -0.4337251050275233,
                    0.5451610665667851,
                    0.31332898902568707,
                    0.9872747175446328,
                    0.5161823112866375,
                    0.6998447107722882,
                    0.49712052937066536
                ],
                [
                    0.3516664243708765,
                    0.8880454143350622,
                    0.21437505199787793,
                    1.4330365620198156,
                    -0.7832188565681186,
                    -0.3900495382501447,
                    -0.7635769027373805,
                    -0.7187364349527935,
                    -0.560502817189182,
                    -1.8170373231890855,
                    0.13805453455807343,
                    0.8222905982984264,
                    0.7007589693567925,
                    -0.23378608286513577,
                    0.1169327580564862,
                    -1.1990412797362529,
                    0.8963701472796952,
                    -0.5897756254271794,
                    0.7337370339164057,
                    -0.1386703821272598,
                    0.8477995299237775,
                    -0.1101483350289521,
                    0.05667503271507151,
                    0.1075024131703822
                ],
                [
                    -0.7464130920692065,
                    0.22263689793610056,
                    -0.1796808956415956,
                    -0.06316250388241317,
                    -0.44322362855479325,
                    -0.9965397853477909,
                    -0.6686113470234245,
                    0.3776274801587175,
                    0.37303950305240396,
                    0.08361341522990329,
                    -0.22613873257424816,
                    0.1311747795895566,
                    -0.4971864616933347,
                    0.8015066416846612,
                    0.052647163852640406,
                    -0.5690956056644882,
                    0.8806986462743798,
                    0.32351818539930477,
                    -0.2056603609707407,
                    -0.5438494624819256,
                    1.0807374505988165,
                    0.7540892341851071,
                    -0.5200351147725,
                    0.611236168246352
                ],
                [
                    -0.10449114444977453,
                    0.4656276195802288,
                    -0.46902465506201807,
                    -0.2530973384774355,
                    0.6969934114910548,
                    1.8413826466192817,
                    0.28601686067052867,
                    -0.16283355903398605,
                    -0.04656406776542261,
                    0.7353500377767334,
                    -0.03161949247821742,
                    1.3524507371257763,
                    0.343663864698368,
                    0.37437035091190196,
                    0.7686857047297605,
                    0.034853251239949284,
                    -0.7562792298363109,
                    -0.7593670278057172,
                    0.0610359251810733,
                    0.6253924290955576,
                    -0.9895283564124018,
                    0.4369472693597716,
                    -0.7283238157695329,
                    0.7827490445007268
                ],
                [
                    0.837278343068969,
                    -0.7814372527325868,
                    -0.37143405223178977,
                    1.1470500781835098,
                    -0.0818414847647315,
                    -0.6232938460268002,
                    0.03999841205566086,
                    0.37511399941634105,
                    0.1770008916372487,
                    0.14787308671112442,
                    0.4206612914827693,
                    -0.7766965159988383,
                    0.7263792714407381,
                    -0.5651903858836151,
                    -0.9296414782462532,
                    -0.0331533708315332,
                    0.23884227860214455,
                    -0.7384703133966252,
                    -0.41460089766635444,
                    0.252218914197622,
                    -0.6228390554717318,
                    0.4459036618145216,
                    0.40342897181700893,
                    -0.051943778304033975
                ],
                [
                    -1.1059281912726835,
                    -0.38089599583753564,
                    0.3857790649114379,
                    0.9210005533797276,
                    -0.852261471384971,
                    -0.3008917923174711,
                    0.2713960186460433,
                    -0.681871068193587,
                    0.15687522954561203,
                    0.20208482006049786,
                    -0.7014564822204574,
                    0.14252775214390895,
                    0.9961028614859181,
                    1.0581930432905067,
                    0.26289144720817736,
                    -0.42655168264648435,
                    -0.07488460487615096,
                    0.38041103870168214,
                    0.501973588892163,
                    0.07985507735751658,
                    -0.411800644937195,
                    1.056645926677174,
                    -1.0038123449390461,
                    0.16146924111700317
                ],
                [
                    -0.05068663628482446,
                    0.11765906820995414,
                    -0.13683753137890578,
                    -0.7329557058087557,
                    0.8497168028119565,
                    0.046400363877918877,
                    0.202600061543058,
                    -0.832127355164333,
                    0.4274847773739593,
                    -0.9411290894984815,
                    -1.1644126429562576,
                    0.9784007384850286,
                    0.8879784135999794,
                    -0.1283290286317949,
                    -1.058455647224699,
                    0.01449092248680392,
                    -0.8220289828890915,
                    -0.8902442483479589,
                    -0.35410021903189903,
                    -0.5480099091117167,
                    0.8313495724206741,
                    -0.8669704815431929,
                    0.28269702396947594,
                    1.1864627196244755
                ],
                [
                    0.945165457417405,
                    0.8319057690937111,
                    -0.24459208685547806,
                    1.0314627829397114,
                    -0.5915525371396447,
                    0.3944987644924307,
                    0.6936673874350253,
                    -0.6797736015952868,
                    -0.2209484719980011,
                    -0.27028088129475386,
                    0.5481099134032473,
                    -0.5281689344605206,
                    -0.9442660146066026,
                    0.6739216436219369,
                    -0.009692536592801226,
                    -0.07227217492289781,
                    -0.05094292342472168,
                    0.2848789526110245,
                    -0.17479902012101362,
                    -0.5102301866397358,
                    -0.8703537406842162,
                    -0.9753183578718068,
                    -0.4272571010032418,
                    -0.09269890541939721
                ],
                [
                    -0.7343578607854013,
                    -0.0015003014168270962,
                    0.8173385348437884,
                    0.15717863981275895,
                    -0.37844356907119747,
                    -0.1269083571609132,
                    0.3300184803211808,
                    0.9215312178916635,
                    -0.23235377797255227,
                    0.5750585039925923,
                    0.031598831272894465,
                    -0.8833468531854983,
                    0.876088365879889,
                    0.06287649681063213,
                    -1.044415424004633,
                    0.20608532078408737,
                    -0.06296777614056581,
                    -0.051764859872621576,
                    0.07429965231288159,
                    -0.9682581547736192,
                    0.777301140145216,
                    -0.5930062302320339,
                    -0.043089364378774905,
                    -0.4926188819400562
                ],
                [
                    1.2652140063859596,
                    -0.6739105989525063,
                    0.3204937050556706,
                    1.0339080094804498,
                    0.5977561696240689,
                    0.4000392709792506,
                    0.40118362565093996,
                    -0.14624185118063077,
                    0.5413025411914417,
                    -0.7376115345320506,
                    0.5793122544579301,
                    0.22725010684961575,
                    0.7956313632964852,
                    0.9454618242467601,
                    0.07070142391262497,
                    -1.1886676954446416,
                    1.1308833372864968,
                    -0.9019814799668833,
                    -0.593184918972669,
                    -0.9795676668795078,
                    -0.6953521486077984,
                    0.33377259527419156,
                    0.7512966051638051,
                    0.30769913153493544
                ]
            ],
            "b": [
                -0.035330972346779295,
                0.041179082831723515,
                -0.026533052854391958,
                0.0056779333462141255,
                0.03900024253646017,
                0.009965627351458572,
                0.08634270190056836,
                0.10851421581968848,
                0.0694394151187703,
                0.08132084791849781,
                -0.09471002498010468,
                0.10280311303303881,
                0.10594354034560445,
                0.0005832339063451212,
                -0.008877449229190731,
                -0.0034694497898961705,
                0.12123077643907822,
                -0.08957264359913591,
                0.10269001651933907,
                -0.06321552403271048,
                -0.029736463933260335,
                0.04100775782281383,
                -0.0988006915240325,
                -0.07290105876795597
            ]
        },
        {
            "w": [
                [
                    -1.0578258101656377,
                    -0.5172096798020636,
                    0.14625566456361372,
                    1.1252926514138606
                ],
                [
                    0.5930733372047781,
                    0.575995301885756,
                    0.9520341291127142,
                    -0.4798434405254678
                ],
                [
                    0.21499290554851888,
                    -0.38687351201604747,
                    -0.5912378321552828,
                    -0.7527308214231857
                ],
                [
                    0.7010499606425626,
                    -0.1078860731520727,
                    0.6073842487467809,
                    0.3973152679023843
                ],
                [
                    -0.04091951171582525,
                    -1.0170039178027441,
                    -0.9155362185532264,
                    0.08277365155950529
                ],
                [
                    -0.744444667951024,
                    -0.593453433528634,
                    -0.056757432497520494,
                    -0.1439036440533296
                ],
                [
                    0.9033910735942311,
                    -0.8586692261045953,
                    -1.0953193820671518,
                    -0.3502383750935084
                ],
                [
                    -0.8557414500608114,
                    -0.27383542234858277,
                    -0.4355755141030544,
                    0.05955711666938355
                ],
                [
                    -0.7402811284456379,
                    -0.7576475045517718,
                    0.44473837015289214,
                    0.357046552743582
                ],
                [
                    -0.42387802228834204,
                    -0.4979353140315832,
                    0.7975846744279194,
                    -0.41646274541378514
                ],
                [
                    -0.003544352366903647,
                    -0.09088197488652289,
                    0.3975204640136929,
                    1.152507557707216
                ],
                [
                    -1.0779327130934415,
                    -0.2585784911922034,
                    -0.2844049113165619,
                    0.7524033023945046
                ],
                [
                    0.5648956475033379,
                    -0.23049977090072787,
                    -0.2172721380534953,
                    0.10325843132079436
                ],
                [
                    -0.09009207478811362,
                    0.24523020369019446,
                    -0.19579196111206948,
                    -0.7736663886623694
                ],
                [
                    -0.653718184802283,
                    -0.3783105514856416,
                    0.6549360278508748,
                    0.9130958049106473
                ],
                [
                    -0.16570294229136837,
                    -0.10756342915049458,
                    0.5714432838728505,
                    -0.7526129774708219
                ],
                [
                    -0.7016445614587915,
                    -0.6390778765186532,
                    -0.9031880836285201,
                    0.1199936247064759
                ],
                [
                    0.08778769822255644,
                    0.22037780924054176,
                    0.4121243465767164,
                    0.9712471935019071
                ],
                [
                    -0.6000225562641702,
                    0.5953008363799965,
                    0.528935920228344,
                    -0.3860300511403597
                ],
                [
                    0.44393635079699256,
                    0.7143971572907056,
                    -0.7956206097122961,
                    0.7828716706520138
                ],
                [
                    -0.701749304049194,
                    -0.7778865306584757,
                    -0.11349073575637669,
                    0.9655766102720884
                ],
                [
                    -0.2561006219278163,
                    -0.09624426470768016,
                    0.35887545308352836,
                    0.12781631655166253
                ],
                [
                    -0.5679527517826631,
                    0.04632876050028023,
                    -0.21348565930473584,
                    0.993758613061771
                ],
                [
                    0.28457202612750043,
                    0.0644116022208397,
                    -0.21467650140277908,
                    0.3141330527037596
                ]
            ],
            "b": [
                0.03899933115327622,
                -0.08356746291833618,
                0.07804624780422416,
                -0.12756573451150788
            ]
        }
    ],
    "lookbacks": {
        "sma": 206,
        "ema": 197,
        "rsi": 12,
        "macd_f": 18,
        "macd_s": 19,
        "adx": 27,
        "trix": 31,
        "slope": 47,
        "vol": 53,
        "atr": 5,
        "mfi": 60,
        "bb": 60
    },
    "lock_days": 7.631979229902044,
    "rebalance_threshold": 0.02719946014895107
}